{"learner":{"attributes":{"best_iteration":"358","best_score":"0.055947544899926","scikit_learn":"{\"_estimator_type\": \"regressor\"}"},"feature_names":[],"feature_types":[],"gradient_booster":{"model":{"gbtree_model_param":{"num_parallel_tree":"1","num_trees":"409"},"iteration_indptr":[0,1,2,3,4,5,6,7,8,9,10,11,12,13,14,15,16,17,18,19,20,21,22,23,24,25,26,27,28,29,30,31,32,33,34,35,36,37,38,39,40,41,42,43,44,45,46,47,48,49,50,51,52,53,54,55,56,57,58,59,60,61,62,63,64,65,66,67,68,69,70,71,72,73,74,75,76,77,78,79,80,81,82,83,84,85,86,87,88,89,90,91,92,93,94,95,96,97,98,99,100,101,102,103,104,105,106,107,108,109,110,111,112,113,114,115,116,117,118,119,120,121,122,123,124,125,126,127,128,129,130,131,132,133,134,135,136,137,138,139,140,141,142,143,144,145,146,147,148,149,150,151,152,153,154,155,156,157,158,159,160,161,162,163,164,165,166,167,168,169,170,171,172,173,174,175,176,177,178,179,180,181,182,183,184,185,186,187,188,189,190,191,192,193,194,195,196,197,198,199,200,201,202,203,204,205,206,207,208,209,210,211,212,213,214,215,216,217,218,219,220,221,222,223,224,225,226,227,228,229,230,231,232,233,234,235,236,237,238,239,240,241,242,243,244,245,246,247,248,249,250,251,252,253,254,255,256,257,258,259,260,261,262,263,264,265,266,267,268,269,270,271,272,273,274,275,276,277,278,279,280,281,282,283,284,285,286,287,288,289,290,291,292,293,294,295,296,297,298,299,300,301,302,303,304,305,306,307,308,309,310,311,312,313,314,315,316,317,318,319,320,321,322,323,324,325,326,327,328,329,330,331,332,333,334,335,336,337,338,339,340,341,342,343,344,345,346,347,348,349,350,351,352,353,354,355,356,357,358,359,360,361,362,363,364,365,366,367,368,369,370,371,372,373,374,375,376,377,378,379,380,381,382,383,384,385,386,387,388,389,390,391,392,393,394,395,396,397,398,399,400,401,402,403,404,405,406,407,408,409],"tree_info":[0,0,0,0,0,0,0,0,0,0,0,0,0,0,0,0,0,0,0,0,0,0,0,0,0,0,0,0,0,0,0,0,0,0,0,0,0,0,0,0,0,0,0,0,0,0,0,0,0,0,0,0,0,0,0,0,0,0,0,0,0,0,0,0,0,0,0,0,0,0,0,0,0,0,0,0,0,0,0,0,0,0,0,0,0,0,0,0,0,0,0,0,0,0,0,0,0,0,0,0,0,0,0,0,0,0,0,0,0,0,0,0,0,0,0,0,0,0,0,0,0,0,0,0,0,0,0,0,0,0,0,0,0,0,0,0,0,0,0,0,0,0,0,0,0,0,0,0,0,0,0,0,0,0,0,0,0,0,0,0,0,0,0,0,0,0,0,0,0,0,0,0,0,0,0,0,0,0,0,0,0,0,0,0,0,0,0,0,0,0,0,0,0,0,0,0,0,0,0,0,0,0,0,0,0,0,0,0,0,0,0,0,0,0,0,0,0,0,0,0,0,0,0,0,0,0,0,0,0,0,0,0,0,0,0,0,0,0,0,0,0,0,0,0,0,0,0,0,0,0,0,0,0,0,0,0,0,0,0,0,0,0,0,0,0,0,0,0,0,0,0,0,0,0,0,0,0,0,0,0,0,0,0,0,0,0,0,0,0,0,0,0,0,0,0,0,0,0,0,0,0,0,0,0,0,0,0,0,0,0,0,0,0,0,0,0,0,0,0,0,0,0,0,0,0,0,0,0,0,0,0,0,0,0,0,0,0,0,0,0,0,0,0,0,0,0,0,0,0,0,0,0,0,0,0,0,0,0,0,0,0,0,0,0,0,0,0,0,0,0,0,0,0,0,0,0,0,0,0,0,0,0,0,0,0,0,0,0,0,0,0,0,0,0,0,0,0,0,0,0,0,0,0,0,0,0,0,0,0],"trees":[{"base_weights":[-3.0361693E-5,-8.545501E-2,8.705928E-2,-1.346778E-1,6.983186E-3,1.6762462E-2,1.9974932E-1,-1.9638379E-1,-1.8836703E-2,-2.0006536E-2,1.4506808E-1,-3.882247E-2,1.3835841E-1,1.3821498E-1,3.2788435E-1,-1.6835801E-1,-2.5827685E-1,1.0873261E-2,-7.661748E-2,1.1941593E-2,-8.064261E-2,2.2487524E-1,9.505635E-2,-5.3685926E-2,8.5637905E-2,1.7567632E-1,8.0939636E-2,1.7766951E-1,7.872135E-2,3.7047434E-1,2.6627374E-1,-2.0956208E-1,-1.394929E-1,-2.8865227E-1,-2.2829892E-1,-2.7004732E-2,5.0816562E-2,-9.676285E-2,-3.9560568E-2,-2.6033955E-2,5.52915E-2,-1.0544615E-1,-4.2266E-2,1.4689396E-1,2.7581638E-1,4.240285E-2,1.2150258E-1,-3.1214286E-2,-1.0678528E-1,4.1555375E-2,1.13057084E-1,1.5506017E-1,2.7237648E-1,6.482237E-2,1.7748778E-1,1.6050777E-1,2.6256183E-1,4.7507215E-2,1.1945953E-1,3.4709483E-1,4.5323208E-1,2.496203E-1,3.671315E-1,-1.1287675E-2,-9.445628E-3,-8.02537E-3,-5.939958E-3,-1.521193E-2,-1.3641139E-2,-1.2284938E-2,-1.0647788E-2,-2.5763991E-3,-6.137513E-4,1.4402239E-3,3.543817E-3,-5.7875225E-3,-4.0692706E-3,-2.9677758E-3,-1.6101735E-3,-2.2016147E-3,-1.7451504E-4,1.7198635E-3,3.637439E-3,-6.6407816E-3,-4.7124107E-3,-3.1553179E-3,-1.6744806E-3,5.177208E-3,8.62716E-3,1.2132027E-2,1.3922858E-2,1.100172E-3,3.156917E-3,4.782772E-3,7.135056E-3,-3.0031048E-3,-1.2884497E-4,-7.575005E-3,-2.8911212E-3,8.510191E-4,2.9855862E-3,6.1206496E-3,2.9896502E-3,6.571963E-3,9.331622E-3,1.1703636E-2,1.5222273E-2,1.969885E-3,4.8404513E-3,6.31372E-3,1.0430212E-2,6.4777704E-3,9.6042985E-3,1.1338926E-2,1.4816671E-2,1.9638662E-3,6.6678314E-3,5.285028E-3,1.0188052E-2,1.5674947E-2,1.8879855E-2,2.031365E-2,2.3611851E-2,1.1192307E-2,1.3883962E-2,1.6847096E-2,1.9620834E-2],"categories":[],"categories_nodes":[],"categories_segments":[],"categories_sizes":[],"default_left":[0,0,0,0,0,0,0,0,0,0,0,0,0,0,0,0,0,0,0,0,0,0,0,0,0,0,0,0,0,0,0,0,0,0,0,0,0,0,0,0,0,0,0,0,0,0,0,0,0,0,0,0,0,0,0,0,0,0,0,0,0,0,0,0,0,0,0,0,0,0,0,0,0,0,0,0,0,0,0,0,0,0,0,0,0,0,0,0,0,0,0,0,0,0,0,0,0,0,0,0,0,0,0,0,0,0,0,0,0,0,0,0,0,0,0,0,0,0,0,0,0,0,0,0,0,0,0],"id":0,"left_children":[1,3,5,7,9,11,13,15,17,19,21,23,25,27,29,31,33,35,37,39,41,43,45,47,49,51,53,55,57,59,61,63,65,67,69,71,73,75,77,79,81,83,85,87,89,91,93,95,97,99,101,103,105,107,109,111,113,115,117,119,121,123,125,-1,-1,-1,-1,-1,-1,-1,-1,-1,-1,-1,-1,-1,-1,-1,-1,-1,-1,-1,-1,-1,-1,-1,-1,-1,-1,-1,-1,-1,-1,-1,-1,-1,-1,-1,-1,-1,-1,-1,-1,-1,-1,-1,-1,-1,-1,-1,-1,-1,-1,-1,-1,-1,-1,-1,-1,-1,-1,-1,-1,-1,-1,-1,-1],"loss_changes":[2.149078E3,6.635326E2,1.1331317E3,6.801942E2,1.8885098E2,5.954039E2,4.332273E2,1.0765088E2,5.6776085E1,8.211539E1,3.304651E1,1.1184284E2,5.920276E1,8.712921E1,4.667932E1,5.0801636E1,1.75531E1,3.304922E1,8.380394E0,4.570425E1,1.3918617E1,1.263559E1,7.0895653E0,6.443941E1,7.791458E0,3.3348328E1,1.6931236E1,3.2477356E1,1.882048E1,2.0231812E1,1.2152832E1,5.8432007E0,1.0911346E1,2.2873535E0,2.5487366E0,4.049369E0,4.6925945E0,2.1147385E0,5.743599E-1,6.0045156E0,4.7262E0,2.7102737E0,1.048481E0,1.3864498E0,1.0142517E-1,7.198117E-1,1.8443565E0,3.1350494E1,3.5150238E1,1.101512E0,1.9740524E0,1.027301E1,3.542572E0,7.58543E0,2.4548645E0,1.8125824E1,4.4669495E0,5.918318E0,7.427353E0,8.306152E0,1.8768921E0,4.4651184E0,6.548004E-1,0E0,0E0,0E0,0E0,0E0,0E0,0E0,0E0,0E0,0E0,0E0,0E0,0E0,0E0,0E0,0E0,0E0,0E0,0E0,0E0,0E0,0E0,0E0,0E0,0E0,0E0,0E0,0E0,0E0,0E0,0E0,0E0,0E0,0E0,0E0,0E0,0E0,0E0,0E0,0E0,0E0,0E0,0E0,0E0,0E0,0E0,0E0,0E0,0E0,0E0,0E0,0E0,0E0,0E0,0E0,0E0,0E0,0E0,0E0,0E0,0E0,0E0,0E0,0E0],"parents":[2147483647,0,0,1,1,2,2,3,3,4,4,5,5,6,6,7,7,8,8,9,9,10,10,11,11,12,12,13,13,14,14,15,15,16,16,17,17,18,18,19,19,20,20,21,21,22,22,23,23,24,24,25,25,26,26,27,27,28,28,29,29,30,30,31,31,32,32,33,33,34,34,35,35,36,36,37,37,38,38,39,39,40,40,41,41,42,42,43,43,44,44,45,45,46,46,47,47,48,48,49,49,50,50,51,51,52,52,53,53,54,54,55,55,56,56,57,57,58,58,59,59,60,60,61,61,62,62],"right_children":[2,4,6,8,10,12,14,16,18,20,22,24,26,28,30,32,34,36,38,40,42,44,46,48,50,52,54,56,58,60,62,64,66,68,70,72,74,76,78,80,82,84,86,88,90,92,94,96,98,100,102,104,106,108,110,112,114,116,118,120,122,124,126,-1,-1,-1,-1,-1,-1,-1,-1,-1,-1,-1,-1,-1,-1,-1,-1,-1,-1,-1,-1,-1,-1,-1,-1,-1,-1,-1,-1,-1,-1,-1,-1,-1,-1,-1,-1,-1,-1,-1,-1,-1,-1,-1,-1,-1,-1,-1,-1,-1,-1,-1,-1,-1,-1,-1,-1,-1,-1,-1,-1,-1,-1,-1,-1],"split_conditions":[1.1426249E-1,8.7878096E-1,8.7878096E-1,1E0,1E0,1E0,1E0,1E0,1E0,1E0,1E0,2.022279E0,1E0,1E0,1E0,-9.228823E-1,-7.65917E-1,-8.759394E-1,-5.8254623E-1,-7.65917E-1,-6.1922044E-1,-8.759394E-1,-1.2060068E0,1E0,8.8441956E-1,2.022279E0,2.022279E0,2.022279E0,9.94442E-1,2.022279E0,2.022279E0,-1.279355E0,-4.358497E-1,-1.279355E0,-3.988088E-1,-1.4627258E0,-4.358497E-1,-1.2060068E0,-4.358497E-1,-1.2547834E0,-3.6250138E-1,-1.4260516E0,-4.358497E-1,-1.4260516E0,-6.558946E-1,-1.4627258E0,-6.558946E-1,8.110713E-1,9.5776784E-1,3.948197E-1,1E0,8.110713E-1,8.477454E-1,8.8441956E-1,8.110713E-1,8.110713E-1,8.8441956E-1,2.022279E0,2.022279E0,7.3772293E-1,6.277005E-1,8.110713E-1,8.8441956E-1,-1.1287675E-2,-9.445628E-3,-8.02537E-3,-5.939958E-3,-1.521193E-2,-1.3641139E-2,-1.2284938E-2,-1.0647788E-2,-2.5763991E-3,-6.137513E-4,1.4402239E-3,3.543817E-3,-5.7875225E-3,-4.0692706E-3,-2.9677758E-3,-1.6101735E-3,-2.2016147E-3,-1.7451504E-4,1.7198635E-3,3.637439E-3,-6.6407816E-3,-4.7124107E-3,-3.1553179E-3,-1.6744806E-3,5.177208E-3,8.62716E-3,1.2132027E-2,1.3922858E-2,1.100172E-3,3.156917E-3,4.782772E-3,7.135056E-3,-3.0031048E-3,-1.2884497E-4,-7.575005E-3,-2.8911212E-3,8.510191E-4,2.9855862E-3,6.1206496E-3,2.9896502E-3,6.571963E-3,9.331622E-3,1.1703636E-2,1.5222273E-2,1.969885E-3,4.8404513E-3,6.31372E-3,1.0430212E-2,6.4777704E-3,9.6042985E-3,1.1338926E-2,1.4816671E-2,1.9638662E-3,6.6678314E-3,5.285028E-3,1.0188052E-2,1.5674947E-2,1.8879855E-2,2.031365E-2,2.3611851E-2,1.1192307E-2,1.3883962E-2,1.6847096E-2,1.9620834E-2],"split_indices":[0,3,3,9,9,9,9,10,10,10,10,2,10,10,10,0,0,0,0,0,0,0,0,10,0,2,2,2,0,2,2,0,0,0,0,0,0,0,0,0,0,0,0,0,0,0,0,0,0,0,10,0,0,0,0,0,0,2,2,0,0,0,0,0,0,0,0,0,0,0,0,0,0,0,0,0,0,0,0,0,0,0,0,0,0,0,0,0,0,0,0,0,0,0,0,0,0,0,0,0,0,0,0,0,0,0,0,0,0,0,0,0,0,0,0,0,0,0,0,0,0,0,0,0,0,0,0],"split_type":[0,0,0,0,0,0,0,0,0,0,0,0,0,0,0,0,0,0,0,0,0,0,0,0,0,0,0,0,0,0,0,0,0,0,0,0,0,0,0,0,0,0,0,0,0,0,0,0,0,0,0,0,0,0,0,0,0,0,0,0,0,0,0,0,0,0,0,0,0,0,0,0,0,0,0,0,0,0,0,0,0,0,0,0,0,0,0,0,0,0,0,0,0,0,0,0,0,0,0,0,0,0,0,0,0,0,0,0,0,0,0,0,0,0,0,0,0,0,0,0,0,0,0,0,0,0,0],"sum_hessian":[2.88868E5,1.45828E5,1.4304E5,9.5157E4,5.0671E4,8.809E4,5.495E4,6.2085E4,3.3072E4,4.2387E4,8.284E3,6.0455E4,2.7635E4,3.7124E4,1.7826E4,4.2737E4,1.9348E4,2.1842E4,1.123E4,2.7761E4,1.4626E4,3.19E3,5.094E3,5.4006E4,6.449E3,1.6748E4,1.0887E4,2.232E4,1.4804E4,1.0537E4,7.289E3,1.7603E4,2.5134E4,9.606E3,9.742E3,1.1211E4,1.0631E4,7.274E3,3.956E3,1.4798E4,1.2963E4,8.883E3,5.743E3,1.262E3,1.928E3,1.704E3,3.39E3,3.7948E4,1.6058E4,2.474E3,3.975E3,1.3807E4,2.941E3,9.331E3,1.556E3,1.8569E4,3.751E3,8.383E3,6.421E3,8.22E3,2.317E3,6.259E3,1.03E3,9.861E3,7.742E3,1.2467E4,1.2667E4,4.831E3,4.775E3,4.558E3,5.184E3,4.206E3,7.005E3,5.07E3,5.561E3,3.252E3,4.022E3,1.07E3,2.886E3,8.228E3,6.57E3,5.902E3,7.061E3,2.576E3,6.307E3,1.7E3,4.043E3,4.71E2,7.91E2,1.49E2,1.779E3,8.6E2,8.44E2,1.53E3,1.86E3,1.8904E4,1.9044E4,8.392E3,7.666E3,1.053E3,1.421E3,3.38E3,5.95E2,7.901E3,5.906E3,1.344E3,1.597E3,5.2E3,4.131E3,5.9E2,9.66E2,9.38E3,9.189E3,1.825E3,1.926E3,7.651E3,7.32E2,5.522E3,8.99E2,3.917E3,4.303E3,6.74E2,1.643E3,3.267E3,2.992E3,4.76E2,5.54E2],"tree_param":{"num_deleted":"0","num_feature":"20","num_nodes":"127","size_leaf_vector":"1"}},{"base_weights":[3.4570596E-5,-8.112589E-2,8.2505494E-2,-1.2784514E-1,6.361389E-3,1.5940055E-2,1.8976107E-1,-1.8654615E-1,-1.7588139E-2,-1.897282E-2,1.3757575E-1,-3.683498E-2,1.3109191E-1,1.3105996E-1,3.1205183E-1,-1.5983747E-1,-2.45663E-1,1.0942539E-2,-7.280259E-2,1.1450887E-2,-7.601625E-2,2.1392669E-1,9.056931E-2,-5.081096E-2,8.142199E-2,1.6675004E-1,7.629668E-2,1.6850327E-1,7.5188495E-2,3.527588E-1,2.5382096E-1,-1.991286E-1,-1.3229595E-1,-2.810541E-1,-2.2232315E-1,-2.6608057E-2,4.5440298E-2,-9.184344E-2,-3.645096E-2,-2.5417361E-2,5.3091303E-2,-1.0099158E-1,-4.0216997E-2,1.3598995E-1,2.6284486E-1,5.411344E-2,1.2600215E-1,-2.954157E-2,-1.01232E-1,3.7442062E-2,1.063284E-1,1.4742619E-1,2.5874192E-1,6.0998213E-2,1.684691E-1,1.5231402E-1,2.4788076E-1,4.073472E-2,1.0848844E-1,3.3053723E-1,4.298585E-1,2.3717292E-1,3.4757906E-1,-1.072316E-2,-8.975091E-3,-7.6232827E-3,-5.610426E-3,-1.4496917E-2,-1.3294379E-2,-1.1887269E-2,-1.0139703E-2,-2.2981404E-3,-6.1140093E-4,1.2335357E-3,3.3606053E-3,-5.5799647E-3,-3.9045995E-3,-2.786957E-3,-1.4613594E-3,-2.5243352E-3,-5.024972E-4,1.6202806E-3,3.4934499E-3,-6.1204974E-3,-4.4722008E-3,-2.9298107E-3,-1.5575166E-3,5.017597E-3,8.084354E-3,1.3079735E-2,1.7051838E-2,1.3386864E-3,3.825215E-3,5.1973397E-3,6.967733E-3,-2.730974E-3,1.26789955E-5,-7.1716094E-3,-2.754737E-3,8.34732E-4,2.7582494E-3,5.6954655E-3,2.93699E-3,6.322806E-3,8.88951E-3,1.1013797E-2,1.4389698E-2,1.8679025E-3,4.5755827E-3,6.2458417E-3,1.0100196E-2,6.2543983E-3,9.229449E-3,1.0677424E-2,1.3959636E-2,1.6422851E-3,6.256062E-3,4.783622E-3,9.496416E-3,1.5086042E-2,1.812449E-2,1.9277386E-2,2.2375828E-2,1.0608302E-2,1.3234283E-2,1.6001958E-2,1.8792616E-2],"categories":[],"categories_nodes":[],"categories_segments":[],"categories_sizes":[],"default_left":[0,0,0,0,0,0,0,0,0,0,0,0,0,0,0,0,0,0,0,0,0,0,0,0,0,0,0,0,0,0,0,0,0,0,0,0,0,0,0,0,0,0,0,0,0,0,0,0,0,0,0,0,0,0,0,0,0,0,0,0,0,0,0,0,0,0,0,0,0,0,0,0,0,0,0,0,0,0,0,0,0,0,0,0,0,0,0,0,0,0,0,0,0,0,0,0,0,0,0,0,0,0,0,0,0,0,0,0,0,0,0,0,0,0,0,0,0,0,0,0,0,0,0,0,0,0,0],"id":1,"left_children":[1,3,5,7,9,11,13,15,17,19,21,23,25,27,29,31,33,35,37,39,41,43,45,47,49,51,53,55,57,59,61,63,65,67,69,71,73,75,77,79,81,83,85,87,89,91,93,95,97,99,101,103,105,107,109,111,113,115,117,119,121,123,125,-1,-1,-1,-1,-1,-1,-1,-1,-1,-1,-1,-1,-1,-1,-1,-1,-1,-1,-1,-1,-1,-1,-1,-1,-1,-1,-1,-1,-1,-1,-1,-1,-1,-1,-1,-1,-1,-1,-1,-1,-1,-1,-1,-1,-1,-1,-1,-1,-1,-1,-1,-1,-1,-1,-1,-1,-1,-1,-1,-1,-1,-1,-1,-1],"loss_changes":[1.939828E3,5.970263E2,1.0262737E3,6.162727E2,1.6903546E2,5.390414E2,3.9512695E2,9.8071045E1,5.211663E1,7.396844E1,2.9514374E1,1.00531425E2,5.44541E1,7.780182E1,4.2229248E1,4.629236E1,1.5908691E1,2.8258022E1,7.7980537E0,4.267556E1,1.3250938E1,1.1916519E1,6.5745735E0,5.8332626E1,7.038227E0,2.9979034E1,1.5488094E1,2.8580566E1,1.7121468E1,1.7855957E1,1.1388519E1,5.2696533E0,1.0179504E1,9.5770264E-1,3.4623413E0,2.9065113E0,5.139305E0,2.0005722E0,5.384269E-1,5.679633E0,4.5282288E0,2.1487427E0,1.0136681E0,1.092802E0,9.895325E-2,1.5363083E0,7.4619293E-1,2.858714E1,3.1412796E1,8.543608E-1,1.4738884E0,8.864441E0,3.2109222E0,6.7974014E0,2.259018E0,1.6233215E1,3.9942322E0,4.880993E0,7.9037704E0,7.403137E0,1.6638489E0,4.2397766E0,7.408905E-1,0E0,0E0,0E0,0E0,0E0,0E0,0E0,0E0,0E0,0E0,0E0,0E0,0E0,0E0,0E0,0E0,0E0,0E0,0E0,0E0,0E0,0E0,0E0,0E0,0E0,0E0,0E0,0E0,0E0,0E0,0E0,0E0,0E0,0E0,0E0,0E0,0E0,0E0,0E0,0E0,0E0,0E0,0E0,0E0,0E0,0E0,0E0,0E0,0E0,0E0,0E0,0E0,0E0,0E0,0E0,0E0,0E0,0E0,0E0,0E0,0E0,0E0,0E0,0E0],"parents":[2147483647,0,0,1,1,2,2,3,3,4,4,5,5,6,6,7,7,8,8,9,9,10,10,11,11,12,12,13,13,14,14,15,15,16,16,17,17,18,18,19,19,20,20,21,21,22,22,23,23,24,24,25,25,26,26,27,27,28,28,29,29,30,30,31,31,32,32,33,33,34,34,35,35,36,36,37,37,38,38,39,39,40,40,41,41,42,42,43,43,44,44,45,45,46,46,47,47,48,48,49,49,50,50,51,51,52,52,53,53,54,54,55,55,56,56,57,57,58,58,59,59,60,60,61,61,62,62],"right_children":[2,4,6,8,10,12,14,16,18,20,22,24,26,28,30,32,34,36,38,40,42,44,46,48,50,52,54,56,58,60,62,64,66,68,70,72,74,76,78,80,82,84,86,88,90,92,94,96,98,100,102,104,106,108,110,112,114,116,118,120,122,124,126,-1,-1,-1,-1,-1,-1,-1,-1,-1,-1,-1,-1,-1,-1,-1,-1,-1,-1,-1,-1,-1,-1,-1,-1,-1,-1,-1,-1,-1,-1,-1,-1,-1,-1,-1,-1,-1,-1,-1,-1,-1,-1,-1,-1,-1,-1,-1,-1,-1,-1,-1,-1,-1,-1,-1,-1,-1,-1,-1,-1,-1,-1,-1,-1],"split_conditions":[1.1426249E-1,8.7878096E-1,8.7878096E-1,1E0,1E0,1E0,1E0,1E0,1E0,1E0,1E0,2.022279E0,1E0,1E0,1E0,-9.155475E-1,-9.8596185E-1,-9.492877E-1,-5.8254623E-1,-7.65917E-1,-6.558946E-1,-9.4892097E-1,-9.492877E-1,1E0,8.110713E-1,2.022279E0,2.022279E0,2.022279E0,8.8441956E-1,2.022279E0,2.022279E0,-1.279355E0,-4.358497E-1,-1.279355E0,-3.988088E-1,-1.4260516E0,-4.358497E-1,-1.2547834E0,-4.358497E-1,-1.4260516E0,-3.6250138E-1,-1.3750745E0,-4.358497E-1,-1.3893775E0,2.022279E0,-1.3750745E0,-5.8217955E-1,8.8441956E-1,9.5776784E-1,3.948197E-1,1E0,8.477454E-1,8.110713E-1,8.8441956E-1,9.210937E-1,8.8441956E-1,8.477454E-1,2.022279E0,2.022279E0,8.110713E-1,6.277005E-1,8.110713E-1,9.5776784E-1,-1.072316E-2,-8.975091E-3,-7.6232827E-3,-5.610426E-3,-1.4496917E-2,-1.3294379E-2,-1.1887269E-2,-1.0139703E-2,-2.2981404E-3,-6.1140093E-4,1.2335357E-3,3.3606053E-3,-5.5799647E-3,-3.9045995E-3,-2.786957E-3,-1.4613594E-3,-2.5243352E-3,-5.024972E-4,1.6202806E-3,3.4934499E-3,-6.1204974E-3,-4.4722008E-3,-2.9298107E-3,-1.5575166E-3,5.017597E-3,8.084354E-3,1.3079735E-2,1.7051838E-2,1.3386864E-3,3.825215E-3,5.1973397E-3,6.967733E-3,-2.730974E-3,1.26789955E-5,-7.1716094E-3,-2.754737E-3,8.34732E-4,2.7582494E-3,5.6954655E-3,2.93699E-3,6.322806E-3,8.88951E-3,1.1013797E-2,1.4389698E-2,1.8679025E-3,4.5755827E-3,6.2458417E-3,1.0100196E-2,6.2543983E-3,9.229449E-3,1.0677424E-2,1.3959636E-2,1.6422851E-3,6.256062E-3,4.783622E-3,9.496416E-3,1.5086042E-2,1.812449E-2,1.9277386E-2,2.2375828E-2,1.0608302E-2,1.3234283E-2,1.6001958E-2,1.8792616E-2],"split_indices":[0,3,3,9,9,9,9,10,10,10,10,2,10,10,10,0,0,0,0,0,0,0,0,10,0,2,2,2,0,2,2,0,0,0,0,0,0,0,0,0,0,0,0,0,2,0,0,0,0,0,10,0,0,0,0,0,0,2,2,0,0,0,0,0,0,0,0,0,0,0,0,0,0,0,0,0,0,0,0,0,0,0,0,0,0,0,0,0,0,0,0,0,0,0,0,0,0,0,0,0,0,0,0,0,0,0,0,0,0,0,0,0,0,0,0,0,0,0,0,0,0,0,0,0,0,0,0],"split_type":[0,0,0,0,0,0,0,0,0,0,0,0,0,0,0,0,0,0,0,0,0,0,0,0,0,0,0,0,0,0,0,0,0,0,0,0,0,0,0,0,0,0,0,0,0,0,0,0,0,0,0,0,0,0,0,0,0,0,0,0,0,0,0,0,0,0,0,0,0,0,0,0,0,0,0,0,0,0,0,0,0,0,0,0,0,0,0,0,0,0,0,0,0,0,0,0,0,0,0,0,0,0,0,0,0,0,0,0,0,0,0,0,0,0,0,0,0,0,0,0,0,0,0,0,0,0,0],"sum_hessian":[2.89811E5,1.46066E5,1.43745E5,9.5218E4,5.0848E4,8.8698E4,5.5047E4,6.2136E4,3.3082E4,4.262E4,8.228E3,6.0823E4,2.7875E4,3.7195E4,1.7852E4,4.2802E4,1.9334E4,2.1812E4,1.127E4,2.7796E4,1.4824E4,3.134E3,5.094E3,5.4395E4,6.428E3,1.6885E4,1.099E4,2.2269E4,1.4926E4,1.0504E4,7.348E3,1.7636E4,2.5166E4,7.679E3,1.1655E4,1.0444E4,1.1368E4,7.395E3,3.875E3,1.4743E4,1.3053E4,8.731E3,6.093E3,1.21E3,1.924E3,2.512E3,2.582E3,3.8258E4,1.6137E4,2.325E3,4.103E3,1.3956E4,2.929E3,9.427E3,1.563E3,1.8499E4,3.77E3,7.337E3,7.589E3,8.158E3,2.346E3,6.243E3,1.105E3,9.895E3,7.741E3,1.2554E4,1.2612E4,4.831E3,2.848E3,6.506E3,5.149E3,4.451E3,5.993E3,5.819E3,5.549E3,3.032E3,4.363E3,1.054E3,2.821E3,5.602E3,9.141E3,5.847E3,7.206E3,3.055E3,5.676E3,2.011E3,4.082E3,5.09E2,7.01E2,1.898E3,2.6E1,1.132E3,1.38E3,9.77E2,1.605E3,2.0773E4,1.7485E4,8.427E3,7.71E3,1.072E3,1.253E3,3.538E3,5.65E2,8.258E3,5.698E3,1.264E3,1.665E3,5.313E3,4.114E3,6.82E2,8.81E2,1.0037E4,8.462E3,1.802E3,1.968E3,6.711E3,6.26E2,6.559E3,1.03E3,4.295E3,3.863E3,6.75E2,1.671E3,3.275E3,2.968E3,5.66E2,5.39E2],"tree_param":{"num_deleted":"0","num_feature":"20","num_nodes":"127","size_leaf_vector":"1"}},{"base_weights":[-2.694961E-5,-7.695714E-2,7.814458E-2,-1.2138949E-1,6.3122255E-3,1.4892939E-2,1.8061428E-1,-1.7727996E-1,-1.7020185E-2,-1.8017711E-2,1.2963638E-1,-3.4836624E-2,1.24477275E-1,1.2463108E-1,2.9668242E-1,-1.519442E-1,-2.3283254E-1,1.0219505E-2,-6.948386E-2,1.1237502E-2,-7.289255E-2,2.0134741E-1,8.5699126E-2,-4.8300527E-2,7.794569E-2,1.5863237E-1,7.2531015E-2,1.6011268E-1,7.0890784E-2,3.3479396E-1,2.4164283E-1,-1.8943317E-1,-1.2589082E-1,-2.667956E-1,-2.102868E-1,-2.5754824E-2,4.346291E-2,-8.8122986E-2,-3.4711853E-2,-2.737137E-2,4.748437E-2,-9.397023E-2,-3.669003E-2,1.2860824E-1,2.4636912E-1,3.167509E-2,1.0832954E-1,-2.8116103E-2,-9.644809E-2,3.8156208E-2,1.01858824E-1,1.4016457E-1,2.4554189E-1,5.820178E-2,1.5844215E-1,1.4468482E-1,2.361552E-1,3.916755E-2,1.020749E-1,3.137423E-1,4.0821558E-1,2.261868E-1,3.3219087E-1,-1.02029955E-2,-8.533705E-3,-7.2599067E-3,-5.3301323E-3,-1.3757433E-2,-1.263238E-2,-1.1246457E-2,-9.594911E-3,-2.2327972E-3,-6.0510164E-4,1.2013882E-3,3.1898033E-3,-5.240391E-3,-3.7292663E-3,-2.6362913E-3,-1.3898452E-3,-2.3513648E-3,-6.721529E-4,1.1656834E-3,3.1594504E-3,-5.9569604E-3,-4.1995477E-3,-1.7840179E-3,-1.0305756E-2,4.803536E-3,7.6958737E-3,1.0509209E-2,1.252666E-2,6.002872E-4,2.432818E-3,4.304006E-3,6.4543905E-3,-2.6639847E-3,-5.227428E-5,-6.843178E-3,-2.6268444E-3,7.9663564E-4,2.7194414E-3,5.4800543E-3,2.7879386E-3,5.945597E-3,8.417446E-3,1.0730586E-2,1.40132E-2,1.1792043E-3,3.8442132E-3,5.5320533E-3,9.420681E-3,5.8981553E-3,8.720646E-3,1.00837825E-2,1.3260326E-2,1.5787272E-3,5.8489684E-3,4.498794E-3,9.05623E-3,1.4728482E-2,1.777263E-2,1.8280549E-2,2.1262895E-2,1.0179485E-2,1.2665482E-2,1.4920401E-2,1.7767569E-2],"categories":[],"categories_nodes":[],"categories_segments":[],"categories_sizes":[],"default_left":[0,0,0,0,0,0,0,0,0,0,0,0,0,0,0,0,0,0,0,0,0,0,0,0,0,0,0,0,0,0,0,0,0,0,0,0,0,0,0,0,0,0,0,0,0,0,0,0,0,0,0,0,0,0,0,0,0,0,0,0,0,0,0,0,0,0,0,0,0,0,0,0,0,0,0,0,0,0,0,0,0,0,0,0,0,0,0,0,0,0,0,0,0,0,0,0,0,0,0,0,0,0,0,0,0,0,0,0,0,0,0,0,0,0,0,0,0,0,0,0,0,0,0,0,0,0,0],"id":2,"left_children":[1,3,5,7,9,11,13,15,17,19,21,23,25,27,29,31,33,35,37,39,41,43,45,47,49,51,53,55,57,59,61,63,65,67,69,71,73,75,77,79,81,83,85,87,89,91,93,95,97,99,101,103,105,107,109,111,113,115,117,119,121,123,125,-1,-1,-1,-1,-1,-1,-1,-1,-1,-1,-1,-1,-1,-1,-1,-1,-1,-1,-1,-1,-1,-1,-1,-1,-1,-1,-1,-1,-1,-1,-1,-1,-1,-1,-1,-1,-1,-1,-1,-1,-1,-1,-1,-1,-1,-1,-1,-1,-1,-1,-1,-1,-1,-1,-1,-1,-1,-1,-1,-1,-1,-1,-1,-1],"loss_changes":[1.7439937E3,5.407751E2,9.3227856E2,5.559408E2,1.5259416E2,4.8469556E2,3.566958E2,8.732312E1,4.750238E1,6.819234E1,2.6386322E1,9.290347E1,4.92464E1,7.061243E1,3.7389282E1,4.1613464E1,1.4828857E1,2.6167612E1,7.359581E0,3.8775883E1,1.1267784E1,1.0392136E1,6.35157E0,5.31127E1,6.2045937E0,2.6848175E1,1.35506935E1,2.6137024E1,1.4568802E1,1.6181519E1,1.0158112E1,4.760559E0,9.351929E0,8.4661865E-1,3.1038208E0,2.7113385E0,4.4924297E0,1.6625175E0,4.9256182E-1,3.6725912E0,5.423279E0,2.3346405E0,9.2271996E-1,9.8905945E-1,2.4341583E-1,5.124558E-1,1.6806793E0,2.6234087E1,2.8643448E1,8.8332057E-1,1.4483337E0,8.255646E0,3.0908508E0,6.104748E0,2.2341728E0,1.4713684E1,3.7138062E0,4.311696E0,7.0880127E0,6.456848E0,1.5493469E0,3.7784424E0,7.2647095E-1,0E0,0E0,0E0,0E0,0E0,0E0,0E0,0E0,0E0,0E0,0E0,0E0,0E0,0E0,0E0,0E0,0E0,0E0,0E0,0E0,0E0,0E0,0E0,0E0,0E0,0E0,0E0,0E0,0E0,0E0,0E0,0E0,0E0,0E0,0E0,0E0,0E0,0E0,0E0,0E0,0E0,0E0,0E0,0E0,0E0,0E0,0E0,0E0,0E0,0E0,0E0,0E0,0E0,0E0,0E0,0E0,0E0,0E0,0E0,0E0,0E0,0E0,0E0,0E0],"parents":[2147483647,0,0,1,1,2,2,3,3,4,4,5,5,6,6,7,7,8,8,9,9,10,10,11,11,12,12,13,13,14,14,15,15,16,16,17,17,18,18,19,19,20,20,21,21,22,22,23,23,24,24,25,25,26,26,27,27,28,28,29,29,30,30,31,31,32,32,33,33,34,34,35,35,36,36,37,37,38,38,39,39,40,40,41,41,42,42,43,43,44,44,45,45,46,46,47,47,48,48,49,49,50,50,51,51,52,52,53,53,54,54,55,55,56,56,57,57,58,58,59,59,60,60,61,61,62,62],"right_children":[2,4,6,8,10,12,14,16,18,20,22,24,26,28,30,32,34,36,38,40,42,44,46,48,50,52,54,56,58,60,62,64,66,68,70,72,74,76,78,80,82,84,86,88,90,92,94,96,98,100,102,104,106,108,110,112,114,116,118,120,122,124,126,-1,-1,-1,-1,-1,-1,-1,-1,-1,-1,-1,-1,-1,-1,-1,-1,-1,-1,-1,-1,-1,-1,-1,-1,-1,-1,-1,-1,-1,-1,-1,-1,-1,-1,-1,-1,-1,-1,-1,-1,-1,-1,-1,-1,-1,-1,-1,-1,-1,-1,-1,-1,-1,-1,-1,-1,-1,-1,-1,-1,-1,-1,-1,-1],"split_conditions":[1.1426249E-1,8.7878096E-1,8.7878096E-1,1E0,1E0,1E0,1E0,1E0,1E0,1E0,1E0,2.022279E0,1E0,1E0,1E0,-9.126136E-1,-9.8596185E-1,-9.492877E-1,-5.8254623E-1,-8.759394E-1,-5.8254623E-1,-9.492877E-1,-1.2547834E0,1E0,8.8441956E-1,2.022279E0,2.022279E0,2.022279E0,8.8441956E-1,2.022279E0,2.022279E0,-1.279355E0,-4.358497E-1,-1.279355E0,-3.988088E-1,-1.4260516E0,-4.358497E-1,-1.2060068E0,-4.358497E-1,-1.4260516E0,-4.358497E-1,-1.4260516E0,2.022279E0,-1.3893775E0,-6.558946E-1,-1.536074E0,-6.558946E-1,8.477454E-1,9.5776784E-1,3.948197E-1,1E0,8.110713E-1,9.94442E-1,6.277005E-1,8.110713E-1,8.477454E-1,8.110713E-1,2.022279E0,2.022279E0,1.0311161E0,6.277005E-1,8.477454E-1,8.110713E-1,-1.02029955E-2,-8.533705E-3,-7.2599067E-3,-5.3301323E-3,-1.3757433E-2,-1.263238E-2,-1.1246457E-2,-9.594911E-3,-2.2327972E-3,-6.0510164E-4,1.2013882E-3,3.1898033E-3,-5.240391E-3,-3.7292663E-3,-2.6362913E-3,-1.3898452E-3,-2.3513648E-3,-6.721529E-4,1.1656834E-3,3.1594504E-3,-5.9569604E-3,-4.1995477E-3,-1.7840179E-3,-1.0305756E-2,4.803536E-3,7.6958737E-3,1.0509209E-2,1.252666E-2,6.002872E-4,2.432818E-3,4.304006E-3,6.4543905E-3,-2.6639847E-3,-5.227428E-5,-6.843178E-3,-2.6268444E-3,7.9663564E-4,2.7194414E-3,5.4800543E-3,2.7879386E-3,5.945597E-3,8.417446E-3,1.0730586E-2,1.40132E-2,1.1792043E-3,3.8442132E-3,5.5320533E-3,9.420681E-3,5.8981553E-3,8.720646E-3,1.00837825E-2,1.3260326E-2,1.5787272E-3,5.8489684E-3,4.498794E-3,9.05623E-3,1.4728482E-2,1.777263E-2,1.8280549E-2,2.1262895E-2,1.0179485E-2,1.2665482E-2,1.4920401E-2,1.7767569E-2],"split_indices":[0,3,3,9,9,9,9,10,10,10,10,2,10,10,10,0,0,0,0,0,0,0,0,10,0,2,2,2,0,2,2,0,0,0,0,0,0,0,0,0,0,0,2,0,0,0,0,0,0,0,10,0,0,0,0,0,0,2,2,0,0,0,0,0,0,0,0,0,0,0,0,0,0,0,0,0,0,0,0,0,0,0,0,0,0,0,0,0,0,0,0,0,0,0,0,0,0,0,0,0,0,0,0,0,0,0,0,0,0,0,0,0,0,0,0,0,0,0,0,0,0,0,0,0,0,0,0],"split_type":[0,0,0,0,0,0,0,0,0,0,0,0,0,0,0,0,0,0,0,0,0,0,0,0,0,0,0,0,0,0,0,0,0,0,0,0,0,0,0,0,0,0,0,0,0,0,0,0,0,0,0,0,0,0,0,0,0,0,0,0,0,0,0,0,0,0,0,0,0,0,0,0,0,0,0,0,0,0,0,0,0,0,0,0,0,0,0,0,0,0,0,0,0,0,0,0,0,0,0,0,0,0,0,0,0,0,0,0,0,0,0,0,0,0,0,0,0,0,0,0,0,0,0,0,0,0,0],"sum_hessian":[2.89999E5,1.4616E5,1.43839E5,9.5305E4,5.0855E4,8.894E4,5.4899E4,6.2067E4,3.3238E4,4.2476E4,8.379E3,6.1178E4,2.7762E4,3.7037E4,1.7862E4,4.2629E4,1.9438E4,2.1879E4,1.1359E4,2.7706E4,1.477E4,3.182E3,5.197E3,5.4654E4,6.524E3,1.6748E4,1.1014E4,2.2307E4,1.473E4,1.0551E4,7.311E3,1.7476E4,2.5153E4,7.751E3,1.1687E4,1.0508E4,1.1371E4,7.394E3,3.965E3,1.3416E4,1.429E4,9.334E3,5.436E3,1.218E3,1.964E3,1.535E3,3.662E3,3.8511E4,1.6143E4,2.45E3,4.074E3,1.3815E4,2.933E3,9.441E3,1.573E3,1.8547E4,3.76E3,7.303E3,7.427E3,8.204E3,2.347E3,6.248E3,1.063E3,9.814E3,7.662E3,1.2567E4,1.2586E4,4.862E3,2.889E3,6.5E3,5.187E3,4.406E3,6.102E3,5.815E3,5.556E3,3.309E3,4.085E3,1.098E3,2.867E3,5.563E3,7.853E3,5.629E3,8.661E3,2.647E3,6.687E3,5.405E3,3.1E1,5.35E2,6.83E2,2.08E2,1.756E3,7.12E2,8.23E2,1.77E3,1.892E3,1.9958E4,1.8553E4,8.405E3,7.738E3,1.035E3,1.415E3,3.487E3,5.87E2,7.879E3,5.936E3,1.555E3,1.378E3,3.31E3,6.131E3,6.08E2,9.65E2,9.77E3,8.777E3,1.723E3,2.037E3,6.655E3,6.48E2,6.443E3,9.84E2,5.626E3,2.578E3,6.77E2,1.67E3,3.413E3,2.835E3,4.38E2,6.25E2],"tree_param":{"num_deleted":"0","num_feature":"20","num_nodes":"127","size_leaf_vector":"1"}},{"base_weights":[-9.923257E-6,-7.313177E-2,7.460336E-2,-1.1505383E-1,5.61417E-3,1.4321321E-2,1.7149077E-1,-1.6824035E-1,-1.5745861E-2,-1.7228426E-2,1.22883186E-1,-3.327383E-2,1.1825836E-1,1.1831272E-1,2.8205717E-1,-1.44127E-1,-2.2142066E-1,9.492569E-3,-6.545324E-2,1.0180506E-2,-6.891719E-2,1.9122332E-1,8.1439085E-2,-4.6050858E-2,7.3786154E-2,1.502984E-1,6.901557E-2,1.5198866E-1,6.796632E-2,3.1903705E-1,2.2908093E-1,-1.7978714E-1,-1.1936749E-1,-2.4434595E-1,-1.9154082E-1,-2.2486411E-2,4.349775E-2,-8.2662664E-2,-3.3835974E-2,-2.7989E-2,4.28088E-2,-9.306787E-2,-4.056196E-2,1.20706834E-1,2.3644163E-1,3.8756695E-2,1.07581116E-1,-2.6994921E-2,-9.125077E-2,4.026458E-2,1.0174586E-1,1.331517E-1,2.3311704E-1,5.4834712E-2,1.5301521E-1,1.3725954E-1,2.2534361E-1,3.7845284E-2,9.697309E-2,2.9891112E-1,3.8811436E-1,2.1413052E-1,3.1431985E-1,-9.678173E-3,-8.114955E-3,-6.886688E-3,-5.0655385E-3,-1.2957506E-2,-1.13885645E-2,-1.00606335E-2,-8.879122E-3,-1.7890934E-3,-1.545753E-4,1.2856682E-3,2.9997642E-3,-5.207674E-3,-3.6502772E-3,-2.564629E-3,-1.3566776E-3,-2.2322417E-3,-7.541455E-4,1.2408784E-3,3.1329424E-3,-5.631463E-3,-4.1900272E-3,-2.9103963E-3,-1.434392E-3,4.3225023E-3,7.2544524E-3,1.0498144E-2,1.1943394E-2,7.384525E-4,2.7522063E-3,4.392881E-3,6.2613725E-3,-2.5999811E-3,-1.06579006E-4,-6.4888983E-3,-2.4740144E-3,1.0048856E-3,3.0312305E-3,5.5626477E-3,2.6822253E-3,5.6448793E-3,7.991744E-3,9.6045E-3,1.2811208E-2,1.3493047E-3,3.8635887E-3,5.765417E-3,9.204296E-3,5.577611E-3,8.309278E-3,9.633696E-3,1.2595767E-2,1.5457103E-3,5.5199317E-3,4.271252E-3,8.654534E-3,1.3204495E-2,1.6041977E-2,1.8118447E-2,2.0621633E-2,9.611365E-3,1.1897033E-2,1.4577131E-2,1.7274935E-2],"categories":[],"categories_nodes":[],"categories_segments":[],"categories_sizes":[],"default_left":[0,0,0,0,0,0,0,0,0,0,0,0,0,0,0,0,0,0,0,0,0,0,0,0,0,0,0,0,0,0,0,0,0,0,0,0,0,0,0,0,0,0,0,0,0,0,0,0,0,0,0,0,0,0,0,0,0,0,0,0,0,0,0,0,0,0,0,0,0,0,0,0,0,0,0,0,0,0,0,0,0,0,0,0,0,0,0,0,0,0,0,0,0,0,0,0,0,0,0,0,0,0,0,0,0,0,0,0,0,0,0,0,0,0,0,0,0,0,0,0,0,0,0,0,0,0,0],"id":3,"left_children":[1,3,5,7,9,11,13,15,17,19,21,23,25,27,29,31,33,35,37,39,41,43,45,47,49,51,53,55,57,59,61,63,65,67,69,71,73,75,77,79,81,83,85,87,89,91,93,95,97,99,101,103,105,107,109,111,113,115,117,119,121,123,125,-1,-1,-1,-1,-1,-1,-1,-1,-1,-1,-1,-1,-1,-1,-1,-1,-1,-1,-1,-1,-1,-1,-1,-1,-1,-1,-1,-1,-1,-1,-1,-1,-1,-1,-1,-1,-1,-1,-1,-1,-1,-1,-1,-1,-1,-1,-1,-1,-1,-1,-1,-1,-1,-1,-1,-1,-1,-1,-1,-1,-1,-1,-1,-1],"loss_changes":[1.5791553E3,4.8257544E2,8.367177E2,5.0386414E2,1.360467E2,4.368844E2,3.2303882E2,7.96333E1,4.174281E1,6.0223225E1,2.343583E1,8.28658E1,4.3754578E1,6.2898132E1,3.4884155E1,3.7720215E1,1.3227844E1,2.3999931E1,6.0940056E0,3.4597332E1,1.0083298E1,9.935951E0,5.7489204E0,4.6610817E1,6.049618E0,2.3831787E1,1.3018433E1,2.3989746E1,1.2991081E1,1.448999E1,9.285187E0,4.1882935E0,8.353851E0,2.6307373E0,1.1007385E0,2.9328356E0,3.13665E0,1.4981003E0,4.6088076E-1,2.751481E0,5.3471336E0,1.4324799E0,1.4183178E0,1.0089741E0,7.210541E-2,7.649534E-1,1.1017075E0,2.366802E1,2.5821228E1,1.2055297E0,1.6042023E0,7.5070953E0,2.6820068E0,5.8451786E0,1.8286934E0,1.3750885E1,3.1772919E0,3.6665535E0,6.6445923E0,6.1307983E0,1.3325195E0,3.2121887E0,6.754837E-1,0E0,0E0,0E0,0E0,0E0,0E0,0E0,0E0,0E0,0E0,0E0,0E0,0E0,0E0,0E0,0E0,0E0,0E0,0E0,0E0,0E0,0E0,0E0,0E0,0E0,0E0,0E0,0E0,0E0,0E0,0E0,0E0,0E0,0E0,0E0,0E0,0E0,0E0,0E0,0E0,0E0,0E0,0E0,0E0,0E0,0E0,0E0,0E0,0E0,0E0,0E0,0E0,0E0,0E0,0E0,0E0,0E0,0E0,0E0,0E0,0E0,0E0,0E0,0E0],"parents":[2147483647,0,0,1,1,2,2,3,3,4,4,5,5,6,6,7,7,8,8,9,9,10,10,11,11,12,12,13,13,14,14,15,15,16,16,17,17,18,18,19,19,20,20,21,21,22,22,23,23,24,24,25,25,26,26,27,27,28,28,29,29,30,30,31,31,32,32,33,33,34,34,35,35,36,36,37,37,38,38,39,39,40,40,41,41,42,42,43,43,44,44,45,45,46,46,47,47,48,48,49,49,50,50,51,51,52,52,53,53,54,54,55,55,56,56,57,57,58,58,59,59,60,60,61,61,62,62],"right_children":[2,4,6,8,10,12,14,16,18,20,22,24,26,28,30,32,34,36,38,40,42,44,46,48,50,52,54,56,58,60,62,64,66,68,70,72,74,76,78,80,82,84,86,88,90,92,94,96,98,100,102,104,106,108,110,112,114,116,118,120,122,124,126,-1,-1,-1,-1,-1,-1,-1,-1,-1,-1,-1,-1,-1,-1,-1,-1,-1,-1,-1,-1,-1,-1,-1,-1,-1,-1,-1,-1,-1,-1,-1,-1,-1,-1,-1,-1,-1,-1,-1,-1,-1,-1,-1,-1,-1,-1,-1,-1,-1,-1,-1,-1,-1,-1,-1,-1,-1,-1,-1,-1,-1,-1,-1,-1],"split_conditions":[1.1426249E-1,8.7878096E-1,8.7878096E-1,1E0,1E0,1E0,1E0,1E0,1E0,1E0,1E0,2.022279E0,1E0,1E0,1E0,-9.225156E-1,-6.558946E-1,-8.759394E-1,-5.8254623E-1,-9.26183E-1,-7.65917E-1,-9.4892097E-1,-1.1693326E0,1E0,9.94442E-1,2.022279E0,2.022279E0,2.022279E0,8.8441956E-1,2.022279E0,2.022279E0,-1.279355E0,-4.358497E-1,-1.2060068E0,-2.1580482E-1,-1.2547834E0,-4.358497E-1,-1.3750745E0,-4.358497E-1,-1.4260516E0,-3.6250138E-1,-1.4260516E0,-4.358497E-1,-1.3893775E0,-6.558946E-1,-1.4993999E0,-5.8254623E-1,8.110713E-1,9.5776784E-1,5.8662546E-1,1E0,8.110713E-1,7.010488E-1,7.3772293E-1,9.5776784E-1,8.477454E-1,8.110713E-1,2.022279E0,2.022279E0,6.277005E-1,9.5776784E-1,8.110713E-1,1.1044644E0,-9.678173E-3,-8.114955E-3,-6.886688E-3,-5.0655385E-3,-1.2957506E-2,-1.13885645E-2,-1.00606335E-2,-8.879122E-3,-1.7890934E-3,-1.545753E-4,1.2856682E-3,2.9997642E-3,-5.207674E-3,-3.6502772E-3,-2.564629E-3,-1.3566776E-3,-2.2322417E-3,-7.541455E-4,1.2408784E-3,3.1329424E-3,-5.631463E-3,-4.1900272E-3,-2.9103963E-3,-1.434392E-3,4.3225023E-3,7.2544524E-3,1.0498144E-2,1.1943394E-2,7.384525E-4,2.7522063E-3,4.392881E-3,6.2613725E-3,-2.5999811E-3,-1.06579006E-4,-6.4888983E-3,-2.4740144E-3,1.0048856E-3,3.0312305E-3,5.5626477E-3,2.6822253E-3,5.6448793E-3,7.991744E-3,9.6045E-3,1.2811208E-2,1.3493047E-3,3.8635887E-3,5.765417E-3,9.204296E-3,5.577611E-3,8.309278E-3,9.633696E-3,1.2595767E-2,1.5457103E-3,5.5199317E-3,4.271252E-3,8.654534E-3,1.3204495E-2,1.6041977E-2,1.8118447E-2,2.0621633E-2,9.611365E-3,1.1897033E-2,1.4577131E-2,1.7274935E-2],"split_indices":[0,3,3,9,9,9,9,10,10,10,10,2,10,10,10,0,0,0,0,0,0,0,0,10,0,2,2,2,0,2,2,0,0,0,0,0,0,0,0,0,0,0,0,0,0,0,0,0,0,0,10,0,0,0,0,0,0,2,2,0,0,0,0,0,0,0,0,0,0,0,0,0,0,0,0,0,0,0,0,0,0,0,0,0,0,0,0,0,0,0,0,0,0,0,0,0,0,0,0,0,0,0,0,0,0,0,0,0,0,0,0,0,0,0,0,0,0,0,0,0,0,0,0,0,0,0,0],"split_type":[0,0,0,0,0,0,0,0,0,0,0,0,0,0,0,0,0,0,0,0,0,0,0,0,0,0,0,0,0,0,0,0,0,0,0,0,0,0,0,0,0,0,0,0,0,0,0,0,0,0,0,0,0,0,0,0,0,0,0,0,0,0,0,0,0,0,0,0,0,0,0,0,0,0,0,0,0,0,0,0,0,0,0,0,0,0,0,0,0,0,0,0,0,0,0,0,0,0,0,0,0,0,0,0,0,0,0,0,0,0,0,0,0,0,0,0,0,0,0,0,0,0,0,0,0,0,0],"sum_hessian":[2.8944E5,1.46181E5,1.43259E5,9.5395E4,5.0786E4,8.8313E4,5.4946E4,6.2123E4,3.3272E4,4.2507E4,8.279E3,6.0575E4,2.7738E4,3.7103E4,1.7843E4,4.2745E4,1.9378E4,2.2068E4,1.1204E4,2.7778E4,1.4729E4,3.124E3,5.155E3,5.4117E4,6.458E3,1.6803E4,1.0935E4,2.2231E4,1.4872E4,1.0505E4,7.338E3,1.7514E4,2.5231E4,1.0961E4,8.417E3,1.1373E4,1.0695E4,7.254E3,3.95E3,1.2802E4,1.4976E4,7.953E3,6.776E3,1.222E3,1.902E3,1.959E3,3.196E3,3.8069E4,1.6048E4,2.938E3,3.52E3,1.3923E4,2.88E3,9.357E3,1.578E3,1.8516E4,3.715E3,7.297E3,7.575E3,8.139E3,2.366E3,6.246E3,1.092E3,9.791E3,7.723E3,1.2505E4,1.2726E4,5.782E3,5.179E3,4.964E3,3.453E3,6.747E3,4.626E3,5.148E3,5.547E3,2.246E3,5.008E3,1.094E3,2.856E3,5.588E3,7.214E3,7.857E3,7.119E3,2.553E3,5.4E3,2.724E3,4.052E3,5.1E2,7.12E2,1.67E2,1.735E3,7.93E2,1.166E3,1.512E3,1.684E3,1.898E4,1.9089E4,8.347E3,7.701E3,1.477E3,1.461E3,2.938E3,5.82E2,7.918E3,6.005E3,1.041E3,1.839E3,4.176E3,5.181E3,7.15E2,8.63E2,9.806E3,8.71E3,1.67E3,2.045E3,6.662E3,6.35E2,6.579E3,9.96E2,3.15E3,4.989E3,1.157E3,1.209E3,3.258E3,2.988E3,6.37E2,4.55E2],"tree_param":{"num_deleted":"0","num_feature":"20","num_nodes":"127","size_leaf_vector":"1"}},{"base_weights":[2.5540811E-4,-6.9476254E-2,7.106456E-2,-1.0961777E-1,5.670093E-3,1.3904091E-2,1.6281757E-1,-1.5994129E-1,-1.5421743E-2,-1.6323175E-2,1.1779444E-1,-3.13451E-2,1.12627625E-1,1.1244612E-1,2.6789904E-1,-1.3701797E-1,-2.1031561E-1,8.540985E-3,-6.213201E-2,9.624322E-3,-6.5276615E-2,1.8266994E-1,7.783275E-2,-4.350885E-2,7.0372455E-2,1.4255284E-1,6.623966E-2,1.4435448E-1,6.397153E-2,3.0277923E-1,2.17014E-1,-1.7395976E-1,-1.1513153E-1,-2.4112688E-1,-1.8988794E-1,-1.9649573E-2,4.2403936E-2,-8.3365224E-2,-3.656333E-2,-2.1995327E-2,4.5400452E-2,-8.634504E-2,-3.299236E-2,1.175114E-1,2.25854E-1,4.229736E-2,1.03802316E-1,-2.5364026E-2,-8.682416E-2,3.0844023E-2,9.1918364E-2,1.2548143E-1,2.2262332E-1,5.31746E-2,1.444538E-1,1.3059688E-1,2.1362822E-1,3.859777E-2,9.6986115E-2,2.832355E-1,3.6939648E-1,2.0303929E-1,2.9919946E-1,-9.222093E-3,-7.853488E-3,-6.6057155E-3,-4.8099286E-3,-1.2449355E-2,-1.1414661E-2,-1.0153469E-2,-8.665889E-3,-1.7264168E-3,-3.2097636E-5,1.2201364E-3,2.843157E-3,-5.0298306E-3,-3.6833626E-3,-2.648491E-3,-1.3016411E-3,-1.8395266E-3,-1.5342583E-4,1.6236029E-3,3.3202742E-3,-5.037667E-3,-3.6304672E-3,-2.55182E-3,-1.2528213E-3,4.2864573E-3,7.1144584E-3,1.1236244E-2,1.5433555E-2,8.5342437E-4,2.8556776E-3,4.3000216E-3,5.938748E-3,-2.2306729E-3,1.8123483E-4,-6.1609214E-3,-2.3278E-3,6.431749E-4,2.3178104E-3,4.9190507E-3,2.4922614E-3,5.1787044E-3,7.3976493E-3,9.84216E-3,1.2889276E-2,9.0345147E-4,3.4597223E-3,5.5604163E-3,9.033488E-3,5.2623353E-3,7.822024E-3,9.169222E-3,1.2060603E-2,1.5675285E-3,5.5320184E-3,4.290005E-3,8.226751E-3,1.3255206E-2,1.6132465E-2,1.643223E-2,1.9286456E-2,9.186161E-3,1.132758E-2,1.3413194E-2,1.60883E-2],"categories":[],"categories_nodes":[],"categories_segments":[],"categories_sizes":[],"default_left":[0,0,0,0,0,0,0,0,0,0,0,0,0,0,0,0,0,0,0,0,0,0,0,0,0,0,0,0,0,0,0,0,0,0,0,0,0,0,0,0,0,0,0,0,0,0,0,0,0,0,0,0,0,0,0,0,0,0,0,0,0,0,0,0,0,0,0,0,0,0,0,0,0,0,0,0,0,0,0,0,0,0,0,0,0,0,0,0,0,0,0,0,0,0,0,0,0,0,0,0,0,0,0,0,0,0,0,0,0,0,0,0,0,0,0,0,0,0,0,0,0,0,0,0,0,0,0],"id":4,"left_children":[1,3,5,7,9,11,13,15,17,19,21,23,25,27,29,31,33,35,37,39,41,43,45,47,49,51,53,55,57,59,61,63,65,67,69,71,73,75,77,79,81,83,85,87,89,91,93,95,97,99,101,103,105,107,109,111,113,115,117,119,121,123,125,-1,-1,-1,-1,-1,-1,-1,-1,-1,-1,-1,-1,-1,-1,-1,-1,-1,-1,-1,-1,-1,-1,-1,-1,-1,-1,-1,-1,-1,-1,-1,-1,-1,-1,-1,-1,-1,-1,-1,-1,-1,-1,-1,-1,-1,-1,-1,-1,-1,-1,-1,-1,-1,-1,-1,-1,-1,-1,-1,-1,-1,-1,-1,-1],"loss_changes":[1.4303998E3,4.4027826E2,7.538421E2,4.5097302E2,1.2532554E2,3.9563306E2,2.9200635E2,7.1575806E1,3.7081997E1,5.3969704E1,2.1591965E1,7.514228E1,3.863031E1,5.7679718E1,3.1663818E1,3.4438477E1,1.2158936E1,2.0904049E1,6.0954094E0,3.141522E1,1.0008701E1,8.91011E0,4.7565346E0,4.26308E1,5.521984E0,2.3098907E1,1.1148106E1,2.1406921E1,1.2400143E1,1.3701233E1,8.29361E0,2.777893E0,8.593445E0,7.2262573E-1,2.5126648E0,3.3795557E0,2.5879097E0,1.017971E0,8.7939596E-1,4.1280313E0,3.5360146E0,1.7552567E0,8.312645E-1,9.863453E-1,1.0914612E-1,8.1390023E-1,7.840805E-1,2.1333687E1,2.3463264E1,6.381242E-1,1.1365509E0,6.851166E0,2.643341E0,5.2604294E0,1.8605804E0,1.2278534E1,3.0633087E0,4.368655E0,4.847431E0,5.7764893E0,1.4719849E0,2.7832947E0,6.5018463E-1,0E0,0E0,0E0,0E0,0E0,0E0,0E0,0E0,0E0,0E0,0E0,0E0,0E0,0E0,0E0,0E0,0E0,0E0,0E0,0E0,0E0,0E0,0E0,0E0,0E0,0E0,0E0,0E0,0E0,0E0,0E0,0E0,0E0,0E0,0E0,0E0,0E0,0E0,0E0,0E0,0E0,0E0,0E0,0E0,0E0,0E0,0E0,0E0,0E0,0E0,0E0,0E0,0E0,0E0,0E0,0E0,0E0,0E0,0E0,0E0,0E0,0E0,0E0,0E0],"parents":[2147483647,0,0,1,1,2,2,3,3,4,4,5,5,6,6,7,7,8,8,9,9,10,10,11,11,12,12,13,13,14,14,15,15,16,16,17,17,18,18,19,19,20,20,21,21,22,22,23,23,24,24,25,25,26,26,27,27,28,28,29,29,30,30,31,31,32,32,33,33,34,34,35,35,36,36,37,37,38,38,39,39,40,40,41,41,42,42,43,43,44,44,45,45,46,46,47,47,48,48,49,49,50,50,51,51,52,52,53,53,54,54,55,55,56,56,57,57,58,58,59,59,60,60,61,61,62,62],"right_children":[2,4,6,8,10,12,14,16,18,20,22,24,26,28,30,32,34,36,38,40,42,44,46,48,50,52,54,56,58,60,62,64,66,68,70,72,74,76,78,80,82,84,86,88,90,92,94,96,98,100,102,104,106,108,110,112,114,116,118,120,122,124,126,-1,-1,-1,-1,-1,-1,-1,-1,-1,-1,-1,-1,-1,-1,-1,-1,-1,-1,-1,-1,-1,-1,-1,-1,-1,-1,-1,-1,-1,-1,-1,-1,-1,-1,-1,-1,-1,-1,-1,-1,-1,-1,-1,-1,-1,-1,-1,-1,-1,-1,-1,-1,-1,-1,-1,-1,-1,-1,-1,-1,-1,-1,-1,-1],"split_conditions":[1.1426249E-1,8.7878096E-1,8.7878096E-1,1E0,1E0,1E0,1E0,1E0,1E0,1E0,1E0,2.022279E0,1E0,1E0,1E0,-9.8596185E-1,-9.8596185E-1,-8.392653E-1,-7.65917E-1,-7.65917E-1,-6.1922044E-1,-8.759394E-1,-1.10772E0,1E0,8.110713E-1,2.022279E0,2.022279E0,2.022279E0,9.94442E-1,2.022279E0,2.022279E0,-1.279355E0,-4.358497E-1,-1.279355E0,-3.988088E-1,-1.2547834E0,-4.358497E-1,-1.3750745E0,-4.7252384E-1,-1.2547834E0,-2.1580482E-1,-1.2060068E0,-4.358497E-1,-1.3750745E0,2.022279E0,-1.4993999E0,-5.8217955E-1,9.5776784E-1,9.5776784E-1,3.948197E-1,1E0,7.3772293E-1,1.0677903E0,5.649877E-1,1.0677903E0,8.110713E-1,8.8441956E-1,2.022279E0,2.022279E0,1.0311161E0,6.277005E-1,8.477454E-1,8.477454E-1,-9.222093E-3,-7.853488E-3,-6.6057155E-3,-4.8099286E-3,-1.2449355E-2,-1.1414661E-2,-1.0153469E-2,-8.665889E-3,-1.7264168E-3,-3.2097636E-5,1.2201364E-3,2.843157E-3,-5.0298306E-3,-3.6833626E-3,-2.648491E-3,-1.3016411E-3,-1.8395266E-3,-1.5342583E-4,1.6236029E-3,3.3202742E-3,-5.037667E-3,-3.6304672E-3,-2.55182E-3,-1.2528213E-3,4.2864573E-3,7.1144584E-3,1.1236244E-2,1.5433555E-2,8.5342437E-4,2.8556776E-3,4.3000216E-3,5.938748E-3,-2.2306729E-3,1.8123483E-4,-6.1609214E-3,-2.3278E-3,6.431749E-4,2.3178104E-3,4.9190507E-3,2.4922614E-3,5.1787044E-3,7.3976493E-3,9.84216E-3,1.2889276E-2,9.0345147E-4,3.4597223E-3,5.5604163E-3,9.033488E-3,5.2623353E-3,7.822024E-3,9.169222E-3,1.2060603E-2,1.5675285E-3,5.5320184E-3,4.290005E-3,8.226751E-3,1.3255206E-2,1.6132465E-2,1.643223E-2,1.9286456E-2,9.186161E-3,1.132758E-2,1.3413194E-2,1.60883E-2],"split_indices":[0,3,3,9,9,9,9,10,10,10,10,2,10,10,10,0,0,0,0,0,0,0,0,10,0,2,2,2,0,2,2,0,0,0,0,0,0,0,0,0,0,0,0,0,2,0,0,0,0,0,10,0,0,0,0,0,0,2,2,0,0,0,0,0,0,0,0,0,0,0,0,0,0,0,0,0,0,0,0,0,0,0,0,0,0,0,0,0,0,0,0,0,0,0,0,0,0,0,0,0,0,0,0,0,0,0,0,0,0,0,0,0,0,0,0,0,0,0,0,0,0,0,0,0,0,0,0],"split_type":[0,0,0,0,0,0,0,0,0,0,0,0,0,0,0,0,0,0,0,0,0,0,0,0,0,0,0,0,0,0,0,0,0,0,0,0,0,0,0,0,0,0,0,0,0,0,0,0,0,0,0,0,0,0,0,0,0,0,0,0,0,0,0,0,0,0,0,0,0,0,0,0,0,0,0,0,0,0,0,0,0,0,0,0,0,0,0,0,0,0,0,0,0,0,0,0,0,0,0,0,0,0,0,0,0,0,0,0,0,0,0,0,0,0,0,0,0,0,0,0,0,0,0,0,0,0,0],"sum_hessian":[2.89691E5,1.45956E5,1.43735E5,9.5136E4,5.082E4,8.8563E4,5.5172E4,6.2008E4,3.3128E4,4.2487E4,8.333E3,6.0729E4,2.7834E4,3.7296E4,1.7876E4,4.2618E4,1.939E4,2.1896E4,1.1232E4,2.7769E4,1.4718E4,3.175E3,5.158E3,5.4243E4,6.486E3,1.6918E4,1.0916E4,2.249E4,1.4806E4,1.0603E4,7.273E3,1.5853E4,2.6765E4,7.726E3,1.1664E4,1.1949E4,9.947E3,6.135E3,5.097E3,1.4741E4,1.3028E4,8.905E3,5.813E3,1.267E3,1.908E3,2.179E3,2.979E3,3.823E4,1.6013E4,2.289E3,4.197E3,1.3947E4,2.971E3,9.355E3,1.561E3,1.8766E4,3.724E3,8.373E3,6.433E3,8.202E3,2.401E3,6.219E3,1.054E3,9.776E3,6.077E3,1.4106E4,1.2659E4,4.78E3,2.946E3,6.49E3,5.174E3,6.702E3,5.247E3,4.432E3,5.515E3,2.206E3,3.929E3,1.991E3,3.106E3,8.273E3,6.468E3,8.066E3,4.962E3,4.343E3,4.562E3,1.774E3,4.039E3,5.57E2,7.1E2,1.886E3,2.2E1,8.07E2,1.372E3,1.364E3,1.615E3,2.2974E4,1.5256E4,8.41E3,7.603E3,1.061E3,1.228E3,3.637E3,5.6E2,7.065E3,6.882E3,1.718E3,1.253E3,2.932E3,6.423E3,8.16E2,7.45E2,9.476E3,9.29E3,1.78E3,1.944E3,7.609E3,7.64E2,5.521E3,9.12E2,5.623E3,2.579E3,6.93E2,1.708E3,3.419E3,2.8E3,4.5E2,6.04E2],"tree_param":{"num_deleted":"0","num_feature":"20","num_nodes":"127","size_leaf_vector":"1"}},{"base_weights":[2.68862E-4,-6.772118E-2,6.591222E-2,-1.0566979E-1,3.3772315E-3,1.1672373E-2,1.5374728E-1,-1.5387098E-1,-1.588807E-2,-1.6603786E-2,1.0806506E-1,-3.1496603E-2,1.06025524E-1,1.06135845E-1,2.533737E-1,-1.322976E-1,-2.009144E-1,6.971816E-3,-6.0562477E-2,7.848527E-3,-6.2522225E-2,1.699904E-1,7.149853E-2,-4.2730402E-2,6.568982E-2,1.35058E-1,6.0782306E-2,1.3656709E-1,5.9943702E-2,2.8666696E-1,2.0550668E-1,-1.63788E-1,-1.1069106E-1,-2.2863723E-1,-1.8159947E-1,-2.634237E-2,3.148292E-2,-7.535363E-2,-3.0935276E-2,-2.6981866E-2,3.673128E-2,-8.1040315E-2,-3.251466E-2,1.06943935E-1,2.0821396E-1,4.382749E-2,1.0042175E-1,-7.990466E-2,-2.2850705E-2,3.530679E-2,9.3372874E-2,1.19024344E-1,2.111151E-1,4.7979217E-2,1.3659602E-1,1.23447776E-1,2.0339225E-1,3.1071795E-2,8.731278E-2,2.6851985E-1,3.499667E-1,1.9253482E-1,2.8321812E-1,-8.738087E-3,-7.409566E-3,-6.3622924E-3,-4.8379838E-3,-1.1801689E-2,-1.0817551E-2,-9.67561E-3,-8.283568E-3,-2.1022966E-3,-7.682308E-4,8.945036E-4,2.5144822E-3,-4.594425E-3,-3.2020889E-3,-1.5101607E-3,-8.4719695E-3,-2.0692886E-3,-7.564128E-4,8.8679383E-4,2.622742E-3,-4.7418308E-3,-3.3882563E-3,-1.5779067E-3,-9.290637E-3,3.9016071E-3,6.354256E-3,7.983977E-3,1.0620673E-2,1.2527775E-3,3.1475443E-3,4.306889E-3,5.503267E-3,-2.912455E-3,-6.707681E-3,-3.9301903E-4,-2.9254693E-3,4.505802E-4,2.4263368E-3,5.121538E-3,2.3567616E-3,5.1064887E-3,7.3174397E-3,9.022353E-3,1.1772948E-2,1.3760652E-3,3.7833692E-3,4.9368236E-3,8.240095E-3,5.245478E-3,7.840767E-3,9.01449E-3,1.1941005E-2,1.2080801E-3,5.0193076E-3,3.8584624E-3,7.745178E-3,1.1716562E-2,1.444404E-2,1.6761992E-2,1.9547416E-2,8.369184E-3,1.0584751E-2,1.3016692E-2,1.5734518E-2],"categories":[],"categories_nodes":[],"categories_segments":[],"categories_sizes":[],"default_left":[0,0,0,0,0,0,0,0,0,0,0,0,0,0,0,0,0,0,0,0,0,0,0,0,0,0,0,0,0,0,0,0,0,0,0,0,0,0,0,0,0,0,0,0,0,0,0,0,0,0,0,0,0,0,0,0,0,0,0,0,0,0,0,0,0,0,0,0,0,0,0,0,0,0,0,0,0,0,0,0,0,0,0,0,0,0,0,0,0,0,0,0,0,0,0,0,0,0,0,0,0,0,0,0,0,0,0,0,0,0,0,0,0,0,0,0,0,0,0,0,0,0,0,0,0,0,0],"id":5,"left_children":[1,3,5,7,9,11,13,15,17,19,21,23,25,27,29,31,33,35,37,39,41,43,45,47,49,51,53,55,57,59,61,63,65,67,69,71,73,75,77,79,81,83,85,87,89,91,93,95,97,99,101,103,105,107,109,111,113,115,117,119,121,123,125,-1,-1,-1,-1,-1,-1,-1,-1,-1,-1,-1,-1,-1,-1,-1,-1,-1,-1,-1,-1,-1,-1,-1,-1,-1,-1,-1,-1,-1,-1,-1,-1,-1,-1,-1,-1,-1,-1,-1,-1,-1,-1,-1,-1,-1,-1,-1,-1,-1,-1,-1,-1,-1,-1,-1,-1,-1,-1,-1,-1,-1,-1,-1,-1],"loss_changes":[1.2928826E3,3.8393262E2,7.021639E2,4.0150232E2,1.0358831E2,3.7114282E2,2.6686755E2,6.1240112E1,3.3100216E1,4.6692627E1,1.7960358E1,6.825717E1,3.756244E1,5.351181E1,2.8936035E1,2.8144226E1,1.0120605E1,1.7508852E1,4.8053894E0,2.7299742E1,8.026978E0,7.077179E0,3.9908733E0,4.1412453E1,5.4453163E0,2.122055E1,1.0847256E1,2.0096924E1,1.1947441E1,1.2229309E1,7.4726257E0,2.8565063E0,5.649933E0,6.567688E-1,2.0911865E0,1.5662055E0,3.1569824E0,1.3626823E0,3.6547637E-1,2.0997972E0,4.4299164E0,1.6300087E0,8.0296993E-1,6.387863E-1,3.396759E-1,9.1490746E-1,3.2662582E-1,2.2931175E1,1.9518093E1,1.0737112E0,1.4145355E0,6.628433E0,2.2211456E0,5.417635E0,1.7083244E0,1.1852722E1,3.0384827E0,3.5233145E0,5.3104362E0,5.739258E0,1.3095703E0,3.0497131E0,6.8582916E-1,0E0,0E0,0E0,0E0,0E0,0E0,0E0,0E0,0E0,0E0,0E0,0E0,0E0,0E0,0E0,0E0,0E0,0E0,0E0,0E0,0E0,0E0,0E0,0E0,0E0,0E0,0E0,0E0,0E0,0E0,0E0,0E0,0E0,0E0,0E0,0E0,0E0,0E0,0E0,0E0,0E0,0E0,0E0,0E0,0E0,0E0,0E0,0E0,0E0,0E0,0E0,0E0,0E0,0E0,0E0,0E0,0E0,0E0,0E0,0E0,0E0,0E0,0E0,0E0],"parents":[2147483647,0,0,1,1,2,2,3,3,4,4,5,5,6,6,7,7,8,8,9,9,10,10,11,11,12,12,13,13,14,14,15,15,16,16,17,17,18,18,19,19,20,20,21,21,22,22,23,23,24,24,25,25,26,26,27,27,28,28,29,29,30,30,31,31,32,32,33,33,34,34,35,35,36,36,37,37,38,38,39,39,40,40,41,41,42,42,43,43,44,44,45,45,46,46,47,47,48,48,49,49,50,50,51,51,52,52,53,53,54,54,55,55,56,56,57,57,58,58,59,59,60,60,61,61,62,62],"right_children":[2,4,6,8,10,12,14,16,18,20,22,24,26,28,30,32,34,36,38,40,42,44,46,48,50,52,54,56,58,60,62,64,66,68,70,72,74,76,78,80,82,84,86,88,90,92,94,96,98,100,102,104,106,108,110,112,114,116,118,120,122,124,126,-1,-1,-1,-1,-1,-1,-1,-1,-1,-1,-1,-1,-1,-1,-1,-1,-1,-1,-1,-1,-1,-1,-1,-1,-1,-1,-1,-1,-1,-1,-1,-1,-1,-1,-1,-1,-1,-1,-1,-1,-1,-1,-1,-1,-1,-1,-1,-1,-1,-1,-1,-1,-1,-1,-1,-1,-1,-1,-1,-1,-1,-1,-1,-1],"split_conditions":[7.758835E-2,8.7878096E-1,8.7878096E-1,1E0,1E0,1E0,1E0,1E0,1E0,1E0,1E0,2.022279E0,1E0,1E0,1E0,-9.492877E-1,-9.8596185E-1,-1.0956175E0,-5.8254623E-1,-9.492877E-1,-6.1922044E-1,-1.022636E0,-9.492877E-1,5.649877E-1,1.0311161E0,2.022279E0,2.022279E0,2.022279E0,8.477454E-1,2.022279E0,2.022279E0,-1.279355E0,-5.0919795E-1,-1.279355E0,-3.988088E-1,-1.4993999E0,-4.358497E-1,-1.2547834E0,2.022279E0,-1.4260516E0,-4.358497E-1,-1.2060068E0,2.022279E0,-1.4260516E0,-8.759394E-1,-1.3160292E0,-5.8217955E-1,1E0,1E0,3.3870825E-1,1E0,8.8441956E-1,8.110713E-1,8.8441956E-1,9.210937E-1,1.0311161E0,1.0677903E0,2.022279E0,2.022279E0,5.543522E-1,1.3978575E0,7.010488E-1,1.0677903E0,-8.738087E-3,-7.409566E-3,-6.3622924E-3,-4.8379838E-3,-1.1801689E-2,-1.0817551E-2,-9.67561E-3,-8.283568E-3,-2.1022966E-3,-7.682308E-4,8.945036E-4,2.5144822E-3,-4.594425E-3,-3.2020889E-3,-1.5101607E-3,-8.4719695E-3,-2.0692886E-3,-7.564128E-4,8.8679383E-4,2.622742E-3,-4.7418308E-3,-3.3882563E-3,-1.5779067E-3,-9.290637E-3,3.9016071E-3,6.354256E-3,7.983977E-3,1.0620673E-2,1.2527775E-3,3.1475443E-3,4.306889E-3,5.503267E-3,-2.912455E-3,-6.707681E-3,-3.9301903E-4,-2.9254693E-3,4.505802E-4,2.4263368E-3,5.121538E-3,2.3567616E-3,5.1064887E-3,7.3174397E-3,9.022353E-3,1.1772948E-2,1.3760652E-3,3.7833692E-3,4.9368236E-3,8.240095E-3,5.245478E-3,7.840767E-3,9.01449E-3,1.1941005E-2,1.2080801E-3,5.0193076E-3,3.8584624E-3,7.745178E-3,1.1716562E-2,1.444404E-2,1.6761992E-2,1.9547416E-2,8.369184E-3,1.0584751E-2,1.3016692E-2,1.5734518E-2],"split_indices":[0,3,3,9,9,9,9,10,10,10,10,2,10,10,10,0,0,0,0,0,0,0,0,0,0,2,2,2,0,2,2,0,0,0,0,0,0,0,2,0,0,0,2,0,0,0,0,10,10,0,10,0,0,0,0,0,0,2,2,0,0,0,0,0,0,0,0,0,0,0,0,0,0,0,0,0,0,0,0,0,0,0,0,0,0,0,0,0,0,0,0,0,0,0,0,0,0,0,0,0,0,0,0,0,0,0,0,0,0,0,0,0,0,0,0,0,0,0,0,0,0,0,0,0,0,0,0],"split_type":[0,0,0,0,0,0,0,0,0,0,0,0,0,0,0,0,0,0,0,0,0,0,0,0,0,0,0,0,0,0,0,0,0,0,0,0,0,0,0,0,0,0,0,0,0,0,0,0,0,0,0,0,0,0,0,0,0,0,0,0,0,0,0,0,0,0,0,0,0,0,0,0,0,0,0,0,0,0,0,0,0,0,0,0,0,0,0,0,0,0,0,0,0,0,0,0,0,0,0,0,0,0,0,0,0,0,0,0,0,0,0,0,0,0,0,0,0,0,0,0,0,0,0,0,0,0,0],"sum_hessian":[2.89681E5,1.42297E5,1.47384E5,9.2777E4,4.952E4,9.1118E4,5.6266E4,6.0367E4,3.241E4,4.1584E4,7.936E3,6.2516E4,2.8602E4,3.8073E4,1.8193E4,4.139E4,1.8977E4,2.144E4,1.097E4,2.7135E4,1.4449E4,2.945E3,4.991E3,5.6039E4,6.477E3,1.7421E4,1.1181E4,2.2951E4,1.5122E4,1.0727E4,7.466E3,1.684E4,2.455E4,7.788E3,1.1189E4,9.088E3,1.2352E4,7.316E3,3.654E3,1.2301E4,1.4834E4,8.934E3,5.515E3,1.113E3,1.832E3,2.552E3,2.439E3,1.9525E4,3.6514E4,3.089E3,3.388E3,1.439E4,3.031E3,9.567E3,1.614E3,1.9187E4,3.764E3,7.36E3,7.762E3,8.341E3,2.386E3,6.401E3,1.065E3,9.879E3,6.961E3,1.1215E4,1.3335E4,4.85E3,2.938E3,6.395E3,4.794E3,3.738E3,5.35E3,7.171E3,5.181E3,2.969E3,4.347E3,3.636E3,1.8E1,5.552E3,6.749E3,6.719E3,8.115E3,4.378E3,4.556E3,5.482E3,3.3E1,4.59E2,6.54E2,1.49E2,1.683E3,1.289E3,1.263E3,9.87E2,1.452E3,1.3956E4,5.569E3,2.5708E4,1.0806E4,1.034E3,2.055E3,2.832E3,5.56E2,8.895E3,5.495E3,1.345E3,1.686E3,5.503E3,4.064E3,6.91E2,9.23E2,1.2337E4,6.85E3,2.282E3,1.482E3,6.694E3,6.66E2,6.751E3,1.011E3,3.118E3,5.223E3,1.762E3,6.24E2,2.772E3,3.629E3,6.22E2,4.43E2],"tree_param":{"num_deleted":"0","num_feature":"20","num_nodes":"127","size_leaf_vector":"1"}},{"base_weights":[4.5435561E-7,-6.266728E-2,6.378621E-2,-9.874743E-2,5.137917E-3,1.2077299E-2,1.4712246E-1,-1.4417565E-1,-1.3494881E-2,-1.4500866E-2,1.0617382E-1,-2.843901E-2,1.0103919E-1,1.0162105E-1,2.4189349E-1,-1.2358219E-1,-1.8971004E-1,8.439312E-3,-5.6325495E-2,8.783359E-3,-5.8594797E-2,1.6450533E-1,7.0309415E-2,-3.936082E-2,6.3223906E-2,1.2856138E-1,5.8779035E-2,1.3036805E-1,5.8362663E-2,2.735164E-1,1.962305E-1,-1.4508665E-1,-9.251545E-2,-2.123059E-1,-1.6723664E-1,-1.7727941E-2,3.9097104E-2,-7.514056E-2,-3.3399202E-2,-1.9824034E-2,4.1296087E-2,-7.7518165E-2,-3.1625014E-2,1.0874544E-1,2.0327666E-1,4.1929834E-2,9.900769E-2,-2.2808777E-2,-7.880865E-2,3.453142E-2,8.893867E-2,1.13383E-1,2.0035134E-1,4.684417E-2,1.3015987E-1,1.1776784E-1,1.926119E-1,3.658784E-2,9.116981E-2,2.5548565E-1,3.3407897E-1,1.8349908E-1,2.691077E-1,-8.1586195E-3,-6.4718747E-3,-5.205325E-3,-3.8849008E-3,-1.1106193E-2,-9.872233E-3,-8.77103E-3,-7.6226043E-3,-1.6383587E-3,-1.1820538E-4,1.6555801E-3,3.860648E-3,-4.8004305E-3,-3.4123198E-3,-2.4533905E-3,-1.1912889E-3,-1.7455682E-3,-2.1997493E-4,1.2651134E-3,2.732672E-3,-4.5127906E-3,-3.2169276E-3,-2.3324026E-3,-1.2181746E-3,3.8850512E-3,6.5008625E-3,1.011024E-2,1.3409887E-2,7.147371E-4,2.8364675E-3,4.7967387E-3,7.6520233E-3,-2.4060986E-3,-1.832132E-4,-5.765956E-3,-2.242777E-3,8.465173E-4,2.5850567E-3,4.871431E-3,2.3076208E-3,4.5886105E-3,6.647446E-3,8.90226E-3,1.1547279E-2,7.584627E-4,3.09256E-3,4.7774715E-3,7.865197E-3,4.810327E-3,7.169737E-3,8.730757E-3,1.1604935E-2,1.4937803E-3,5.1811803E-3,4.0423363E-3,7.6421E-3,1.1623293E-2,1.4081216E-2,1.4853855E-2,1.7469434E-2,8.221527E-3,1.0322313E-2,1.1372014E-2,1.4179068E-2],"categories":[],"categories_nodes":[],"categories_segments":[],"categories_sizes":[],"default_left":[0,0,0,0,0,0,0,0,0,0,0,0,0,0,0,0,0,0,0,0,0,0,0,0,0,0,0,0,0,0,0,0,0,0,0,0,0,0,0,0,0,0,0,0,0,0,0,0,0,0,0,0,0,0,0,0,0,0,0,0,0,0,0,0,0,0,0,0,0,0,0,0,0,0,0,0,0,0,0,0,0,0,0,0,0,0,0,0,0,0,0,0,0,0,0,0,0,0,0,0,0,0,0,0,0,0,0,0,0,0,0,0,0,0,0,0,0,0,0,0,0,0,0,0,0,0,0],"id":6,"left_children":[1,3,5,7,9,11,13,15,17,19,21,23,25,27,29,31,33,35,37,39,41,43,45,47,49,51,53,55,57,59,61,63,65,67,69,71,73,75,77,79,81,83,85,87,89,91,93,95,97,99,101,103,105,107,109,111,113,115,117,119,121,123,125,-1,-1,-1,-1,-1,-1,-1,-1,-1,-1,-1,-1,-1,-1,-1,-1,-1,-1,-1,-1,-1,-1,-1,-1,-1,-1,-1,-1,-1,-1,-1,-1,-1,-1,-1,-1,-1,-1,-1,-1,-1,-1,-1,-1,-1,-1,-1,-1,-1,-1,-1,-1,-1,-1,-1,-1,-1,-1,-1,-1,-1,-1,-1,-1],"loss_changes":[1.1565093E3,3.5703137E2,6.178638E2,3.6890448E2,1.0057581E2,3.1892804E2,2.3672046E2,5.8246704E1,3.1109587E1,4.357234E1,1.7245552E1,6.0865902E1,3.2196136E1,4.6120575E1,2.566101E1,2.8574707E1,9.790527E0,1.7569534E1,4.83519E0,2.5833538E1,7.4824753E0,6.7662125E0,4.1576614E0,3.546797E1,4.7728405E0,1.8247528E1,9.29858E0,1.7454376E1,1.0577198E1,1.1401367E1,6.7144775E0,7.135498E0,2.9987335E0,1.3634338E0,1.147644E0,2.7301304E0,2.2982607E0,8.7952805E-1,7.573924E-1,3.4382105E0,2.7758713E0,1.4409561E0,6.587496E-1,8.417759E-1,7.457733E-2,1.0506921E0,4.070549E-1,1.8544836E1,1.9898552E1,9.24175E-1,1.2352848E0,5.841095E0,1.9550247E0,4.44783E0,1.454298E0,1.0227661E1,2.6243591E0,4.0033464E0,3.7489624E0,4.814331E0,1.2614136E0,2.6829376E0,5.880432E-1,0E0,0E0,0E0,0E0,0E0,0E0,0E0,0E0,0E0,0E0,0E0,0E0,0E0,0E0,0E0,0E0,0E0,0E0,0E0,0E0,0E0,0E0,0E0,0E0,0E0,0E0,0E0,0E0,0E0,0E0,0E0,0E0,0E0,0E0,0E0,0E0,0E0,0E0,0E0,0E0,0E0,0E0,0E0,0E0,0E0,0E0,0E0,0E0,0E0,0E0,0E0,0E0,0E0,0E0,0E0,0E0,0E0,0E0,0E0,0E0,0E0,0E0,0E0,0E0],"parents":[2147483647,0,0,1,1,2,2,3,3,4,4,5,5,6,6,7,7,8,8,9,9,10,10,11,11,12,12,13,13,14,14,15,15,16,16,17,17,18,18,19,19,20,20,21,21,22,22,23,23,24,24,25,25,26,26,27,27,28,28,29,29,30,30,31,31,32,32,33,33,34,34,35,35,36,36,37,37,38,38,39,39,40,40,41,41,42,42,43,43,44,44,45,45,46,46,47,47,48,48,49,49,50,50,51,51,52,52,53,53,54,54,55,55,56,56,57,57,58,58,59,59,60,60,61,61,62,62],"right_children":[2,4,6,8,10,12,14,16,18,20,22,24,26,28,30,32,34,36,38,40,42,44,46,48,50,52,54,56,58,60,62,64,66,68,70,72,74,76,78,80,82,84,86,88,90,92,94,96,98,100,102,104,106,108,110,112,114,116,118,120,122,124,126,-1,-1,-1,-1,-1,-1,-1,-1,-1,-1,-1,-1,-1,-1,-1,-1,-1,-1,-1,-1,-1,-1,-1,-1,-1,-1,-1,-1,-1,-1,-1,-1,-1,-1,-1,-1,-1,-1,-1,-1,-1,-1,-1,-1,-1,-1,-1,-1,-1,-1,-1,-1,-1,-1,-1,-1,-1,-1,-1,-1,-1,-1,-1,-1],"split_conditions":[1.1426249E-1,8.7878096E-1,8.7878096E-1,1E0,1E0,1E0,1E0,1E0,1E0,1E0,1E0,2.022279E0,1E0,1E0,1E0,-6.1922044E-1,-7.65917E-1,-8.392653E-1,-7.65917E-1,-7.65917E-1,-6.558946E-1,-8.392653E-1,-9.492877E-1,1E0,1.0311161E0,2.022279E0,2.022279E0,2.022279E0,1.0677903E0,2.022279E0,2.022279E0,-1.2060068E0,-2.1580482E-1,-1.2060068E0,-2.1580482E-1,-1.279355E0,-6.910823E-2,-1.4993999E0,-4.7252384E-1,-1.279355E0,-3.955081E-1,-1.2060068E0,-4.358497E-1,-1.3893775E0,2.022279E0,-1.4627258E0,4.0914204E-2,7.010488E-1,8.8441956E-1,5.8662546E-1,1E0,7.010488E-1,1.0677903E0,5.649877E-1,9.210937E-1,8.8441956E-1,1.251161E0,2.022279E0,2.022279E0,8.110713E-1,6.277005E-1,8.477454E-1,5.649877E-1,-8.1586195E-3,-6.4718747E-3,-5.205325E-3,-3.8849008E-3,-1.1106193E-2,-9.872233E-3,-8.77103E-3,-7.6226043E-3,-1.6383587E-3,-1.1820538E-4,1.6555801E-3,3.860648E-3,-4.8004305E-3,-3.4123198E-3,-2.4533905E-3,-1.1912889E-3,-1.7455682E-3,-2.1997493E-4,1.2651134E-3,2.732672E-3,-4.5127906E-3,-3.2169276E-3,-2.3324026E-3,-1.2181746E-3,3.8850512E-3,6.5008625E-3,1.011024E-2,1.3409887E-2,7.147371E-4,2.8364675E-3,4.7967387E-3,7.6520233E-3,-2.4060986E-3,-1.832132E-4,-5.765956E-3,-2.242777E-3,8.465173E-4,2.5850567E-3,4.871431E-3,2.3076208E-3,4.5886105E-3,6.647446E-3,8.90226E-3,1.1547279E-2,7.584627E-4,3.09256E-3,4.7774715E-3,7.865197E-3,4.810327E-3,7.169737E-3,8.730757E-3,1.1604935E-2,1.4937803E-3,5.1811803E-3,4.0423363E-3,7.6421E-3,1.1623293E-2,1.4081216E-2,1.4853855E-2,1.7469434E-2,8.221527E-3,1.0322313E-2,1.1372014E-2,1.4179068E-2],"split_indices":[0,3,3,9,9,9,9,10,10,10,10,2,10,10,10,0,0,0,0,0,0,0,0,10,0,2,2,2,0,2,2,0,0,0,0,0,0,0,0,0,0,0,0,0,2,0,0,0,0,0,10,0,0,0,0,0,0,2,2,0,0,0,0,0,0,0,0,0,0,0,0,0,0,0,0,0,0,0,0,0,0,0,0,0,0,0,0,0,0,0,0,0,0,0,0,0,0,0,0,0,0,0,0,0,0,0,0,0,0,0,0,0,0,0,0,0,0,0,0,0,0,0,0,0,0,0,0],"split_type":[0,0,0,0,0,0,0,0,0,0,0,0,0,0,0,0,0,0,0,0,0,0,0,0,0,0,0,0,0,0,0,0,0,0,0,0,0,0,0,0,0,0,0,0,0,0,0,0,0,0,0,0,0,0,0,0,0,0,0,0,0,0,0,0,0,0,0,0,0,0,0,0,0,0,0,0,0,0,0,0,0,0,0,0,0,0,0,0,0,0,0,0,0,0,0,0,0,0,0,0,0,0,0,0,0,0,0,0,0,0,0,0,0,0,0,0,0,0,0,0,0,0,0,0,0,0,0],"sum_hessian":[2.8932E5,1.45939E5,1.43381E5,9.5253E4,5.0686E4,8.8481E4,5.49E4,6.214E4,3.3113E4,4.2438E4,8.248E3,6.0794E4,2.7687E4,3.7093E4,1.7807E4,4.2791E4,1.9349E4,2.1899E4,1.1214E4,2.7773E4,1.4665E4,3.139E3,5.109E3,5.4322E4,6.472E3,1.6766E4,1.0921E4,2.2283E4,1.481E4,1.0518E4,7.289E3,2.5285E4,1.7506E4,9.644E3,9.705E3,1.1815E4,1.0084E4,6.158E3,5.056E3,1.4774E4,1.2999E4,8.617E3,6.048E3,1.289E3,1.85E3,2.57E3,2.539E3,3.8267E4,1.6055E4,3.06E3,3.412E3,1.3842E4,2.924E3,9.358E3,1.563E3,1.8534E4,3.749E3,8.903E3,5.907E3,8.109E3,2.409E3,6.208E3,1.081E3,1.1725E4,1.356E4,9.819E3,7.687E3,5.799E3,3.845E3,6.24E3,3.465E3,5.97E3,5.845E3,8.717E3,1.367E3,1.526E3,4.632E3,1.916E3,3.14E3,7.468E3,7.306E3,5.917E3,7.082E3,4.379E3,4.238E3,1.969E3,4.079E3,5.26E2,7.63E2,1.824E3,2.6E1,8.97E2,1.673E3,2.405E3,1.34E2,1.6478E4,2.1789E4,7.735E3,8.32E3,1.512E3,1.548E3,2.846E3,5.66E2,6.58E3,7.262E3,1.695E3,1.229E3,3.009E3,6.349E3,6.89E2,8.74E2,1.0068E4,8.466E3,2.579E3,1.17E3,8.094E3,8.09E2,5.062E3,8.45E2,4.317E3,3.792E3,7.11E2,1.698E3,3.395E3,2.813E3,2.83E2,7.98E2],"tree_param":{"num_deleted":"0","num_feature":"20","num_nodes":"127","size_leaf_vector":"1"}},{"base_weights":[-4.6815487E-5,-6.1366607E-2,5.91968E-2,-9.562371E-2,2.6686343E-3,1.0152485E-2,1.3875464E-1,-1.3907263E-1,-1.4638209E-2,-1.5328202E-2,9.7590916E-2,-2.862972E-2,9.513356E-2,9.5538795E-2,2.2833125E-1,-1.1945135E-1,-1.8144047E-1,5.6625647E-3,-5.440561E-2,6.762657E-3,-5.6800842E-2,1.5316917E-1,6.493597E-2,-3.8932078E-2,5.9720878E-2,1.21907935E-1,5.402863E-2,1.2349466E-1,5.3392503E-2,2.5760394E-1,1.8580246E-1,-1.5040793E-1,-1.0159423E-1,-2.0663781E-1,-1.6412199E-1,-2.419814E-2,2.8051538E-2,-6.726518E-2,-2.9000167E-2,-2.3698999E-2,3.2721147E-2,-7.94646E-2,-3.6350813E-2,9.9893436E-2,1.899946E-1,2.5914295E-2,8.203989E-2,-7.230686E-2,-2.1022324E-2,3.3411458E-2,8.547057E-2,1.074408E-1,1.897206E-1,4.2968944E-2,1.24346234E-1,1.1177198E-1,1.8416238E-1,2.626835E-2,7.921397E-2,2.4115056E-1,3.1699568E-1,1.7384101E-1,2.5568527E-1,-7.897169E-3,-6.8074525E-3,-5.8094473E-3,-4.3775486E-3,-1.1131746E-2,-1.0073793E-2,-8.713411E-3,-7.524109E-3,-1.921084E-3,-7.224382E-4,7.421847E-4,2.205687E-3,-4.014032E-3,-2.844351E-3,-1.4154463E-3,-8.0350805E-3,-1.874982E-3,-6.9027225E-4,7.611117E-4,2.3802165E-3,-4.555242E-3,-3.5032758E-3,-2.4785602E-3,-1.1205942E-3,3.8937763E-3,6.4080767E-3,9.523035E-3,4.54134E-3,3.5000444E-4,2.0527649E-3,3.3112827E-3,4.883533E-3,-2.6122674E-3,-6.0525327E-3,-3.6417853E-4,-2.6553192E-3,7.603428E-4,2.5178555E-3,4.7067413E-3,2.1568164E-3,4.5409505E-3,6.5360884E-3,7.9547735E-3,1.0470781E-2,8.839841E-4,3.1094898E-3,4.737236E-3,7.7008777E-3,4.4862404E-3,6.763693E-3,7.815727E-3,1.0358474E-2,1.0270256E-3,4.4265636E-3,3.500577E-3,7.046532E-3,1.04757985E-2,1.2991071E-2,1.5181424E-2,1.7646173E-2,7.7552474E-3,9.724708E-3,1.0461892E-2,1.3337639E-2],"categories":[],"categories_nodes":[],"categories_segments":[],"categories_sizes":[],"default_left":[0,0,0,0,0,0,0,0,0,0,0,0,0,0,0,0,0,0,0,0,0,0,0,0,0,0,0,0,0,0,0,0,0,0,0,0,0,0,0,0,0,0,0,0,0,0,0,0,0,0,0,0,0,0,0,0,0,0,0,0,0,0,0,0,0,0,0,0,0,0,0,0,0,0,0,0,0,0,0,0,0,0,0,0,0,0,0,0,0,0,0,0,0,0,0,0,0,0,0,0,0,0,0,0,0,0,0,0,0,0,0,0,0,0,0,0,0,0,0,0,0,0,0,0,0,0,0],"id":7,"left_children":[1,3,5,7,9,11,13,15,17,19,21,23,25,27,29,31,33,35,37,39,41,43,45,47,49,51,53,55,57,59,61,63,65,67,69,71,73,75,77,79,81,83,85,87,89,91,93,95,97,99,101,103,105,107,109,111,113,115,117,119,121,123,125,-1,-1,-1,-1,-1,-1,-1,-1,-1,-1,-1,-1,-1,-1,-1,-1,-1,-1,-1,-1,-1,-1,-1,-1,-1,-1,-1,-1,-1,-1,-1,-1,-1,-1,-1,-1,-1,-1,-1,-1,-1,-1,-1,-1,-1,-1,-1,-1,-1,-1,-1,-1,-1,-1,-1,-1,-1,-1,-1,-1,-1,-1,-1,-1],"loss_changes":[1.052464E3,3.1229218E2,5.7493774E2,3.263427E2,8.4762245E1,3.0043375E2,2.1751233E2,5.0157104E1,2.6145012E1,3.8213676E1,1.4342331E1,5.697568E1,3.1430847E1,4.465799E1,2.27182E1,2.2791931E1,8.302612E0,1.4335072E1,3.5738144E0,2.1520725E1,6.715641E0,5.7215424E0,3.3236465E0,3.350566E1,4.4256973E0,1.6948944E1,8.75845E0,1.6187408E1,1.0587044E1,1.0505615E1,6.1905518E0,1.6000061E0,5.35318E0,5.974426E-1,1.5413513E0,1.273551E0,2.5989943E0,9.768982E-1,3.3046913E-1,1.7092032E0,3.8261738E0,7.457962E-1,1.4034567E0,7.356596E-1,6.262207E-2,4.350102E-1,8.497944E-1,1.9136543E1,1.6080696E1,9.971955E-1,1.2074623E0,5.505554E0,1.8003006E0,4.7328434E0,1.3301105E0,9.885574E0,2.3311539E0,2.6283417E0,4.388855E0,4.956604E0,1.0195312E0,2.4355316E0,5.03479E-1,0E0,0E0,0E0,0E0,0E0,0E0,0E0,0E0,0E0,0E0,0E0,0E0,0E0,0E0,0E0,0E0,0E0,0E0,0E0,0E0,0E0,0E0,0E0,0E0,0E0,0E0,0E0,0E0,0E0,0E0,0E0,0E0,0E0,0E0,0E0,0E0,0E0,0E0,0E0,0E0,0E0,0E0,0E0,0E0,0E0,0E0,0E0,0E0,0E0,0E0,0E0,0E0,0E0,0E0,0E0,0E0,0E0,0E0,0E0,0E0,0E0,0E0,0E0,0E0],"parents":[2147483647,0,0,1,1,2,2,3,3,4,4,5,5,6,6,7,7,8,8,9,9,10,10,11,11,12,12,13,13,14,14,15,15,16,16,17,17,18,18,19,19,20,20,21,21,22,22,23,23,24,24,25,25,26,26,27,27,28,28,29,29,30,30,31,31,32,32,33,33,34,34,35,35,36,36,37,37,38,38,39,39,40,40,41,41,42,42,43,43,44,44,45,45,46,46,47,47,48,48,49,49,50,50,51,51,52,52,53,53,54,54,55,55,56,56,57,57,58,58,59,59,60,60,61,61,62,62],"right_children":[2,4,6,8,10,12,14,16,18,20,22,24,26,28,30,32,34,36,38,40,42,44,46,48,50,52,54,56,58,60,62,64,66,68,70,72,74,76,78,80,82,84,86,88,90,92,94,96,98,100,102,104,106,108,110,112,114,116,118,120,122,124,126,-1,-1,-1,-1,-1,-1,-1,-1,-1,-1,-1,-1,-1,-1,-1,-1,-1,-1,-1,-1,-1,-1,-1,-1,-1,-1,-1,-1,-1,-1,-1,-1,-1,-1,-1,-1,-1,-1,-1,-1,-1,-1,-1,-1,-1,-1,-1,-1,-1,-1,-1,-1,-1,-1,-1,-1,-1,-1,-1,-1,-1,-1,-1,-1],"split_conditions":[7.758835E-2,8.7878096E-1,8.7878096E-1,1E0,1E0,1E0,1E0,1E0,1E0,1E0,1E0,2.022279E0,1E0,1E0,1E0,-1.022636E0,-9.8596185E-1,-1.0956175E0,-5.8254623E-1,-9.492877E-1,-9.4892097E-1,-9.492877E-1,-1.2547834E0,5.649877E-1,1.0677903E0,2.022279E0,2.022279E0,2.022279E0,8.477454E-1,2.022279E0,2.022279E0,-1.279355E0,-5.1946676E-1,-1.5727482E0,-3.988088E-1,-1.4993999E0,-4.7252384E-1,-1.2060068E0,2.022279E0,-1.4627258E0,-4.358497E-1,-1.3750745E0,-4.358497E-1,-1.279355E0,-1.4245652E-1,-1.536074E0,-6.558946E-1,1E0,1E0,5.9102637E-1,1E0,8.110713E-1,7.3772293E-1,7.010488E-1,1.0311161E0,8.110713E-1,8.110713E-1,2.022279E0,2.022279E0,5.543522E-1,1.3978575E0,8.110713E-1,3.948197E-1,-7.897169E-3,-6.8074525E-3,-5.8094473E-3,-4.3775486E-3,-1.1131746E-2,-1.0073793E-2,-8.713411E-3,-7.524109E-3,-1.921084E-3,-7.224382E-4,7.421847E-4,2.205687E-3,-4.014032E-3,-2.844351E-3,-1.4154463E-3,-8.0350805E-3,-1.874982E-3,-6.9027225E-4,7.611117E-4,2.3802165E-3,-4.555242E-3,-3.5032758E-3,-2.4785602E-3,-1.1205942E-3,3.8937763E-3,6.4080767E-3,9.523035E-3,4.54134E-3,3.5000444E-4,2.0527649E-3,3.3112827E-3,4.883533E-3,-2.6122674E-3,-6.0525327E-3,-3.6417853E-4,-2.6553192E-3,7.603428E-4,2.5178555E-3,4.7067413E-3,2.1568164E-3,4.5409505E-3,6.5360884E-3,7.9547735E-3,1.0470781E-2,8.839841E-4,3.1094898E-3,4.737236E-3,7.7008777E-3,4.4862404E-3,6.763693E-3,7.815727E-3,1.0358474E-2,1.0270256E-3,4.4265636E-3,3.500577E-3,7.046532E-3,1.04757985E-2,1.2991071E-2,1.5181424E-2,1.7646173E-2,7.7552474E-3,9.724708E-3,1.0461892E-2,1.3337639E-2],"split_indices":[0,3,3,9,9,9,9,10,10,10,10,2,10,10,10,0,0,0,0,0,0,0,0,0,0,2,2,2,0,2,2,0,0,0,0,0,0,0,2,0,0,0,0,0,0,0,0,10,10,0,10,0,0,0,0,0,0,2,2,0,0,0,0,0,0,0,0,0,0,0,0,0,0,0,0,0,0,0,0,0,0,0,0,0,0,0,0,0,0,0,0,0,0,0,0,0,0,0,0,0,0,0,0,0,0,0,0,0,0,0,0,0,0,0,0,0,0,0,0,0,0,0,0,0,0,0,0],"split_type":[0,0,0,0,0,0,0,0,0,0,0,0,0,0,0,0,0,0,0,0,0,0,0,0,0,0,0,0,0,0,0,0,0,0,0,0,0,0,0,0,0,0,0,0,0,0,0,0,0,0,0,0,0,0,0,0,0,0,0,0,0,0,0,0,0,0,0,0,0,0,0,0,0,0,0,0,0,0,0,0,0,0,0,0,0,0,0,0,0,0,0,0,0,0,0,0,0,0,0,0,0,0,0,0,0,0,0,0,0,0,0,0,0,0,0,0,0,0,0,0,0,0,0,0,0,0,0],"sum_hessian":[2.89709E5,1.4236E5,1.47349E5,9.2744E4,4.9616E4,9.1156E4,5.6193E4,6.036E4,3.2384E4,4.1709E4,7.907E3,6.2592E4,2.8564E4,3.7907E4,1.8286E4,4.1257E4,1.9103E4,2.144E4,1.0944E4,2.7214E4,1.4495E4,2.925E3,4.982E3,5.6056E4,6.536E3,1.7296E4,1.1268E4,2.2789E4,1.5118E4,1.0828E4,7.458E3,1.509E4,2.6167E4,7.777E3,1.1326E4,9.187E3,1.2253E4,7.265E3,3.679E3,1.2521E4,1.4693E4,6.874E3,7.621E3,1.197E3,1.728E3,1.519E3,3.463E3,1.9575E4,3.6481E4,3.234E3,3.302E3,1.4257E4,3.039E3,9.738E3,1.53E3,1.9101E4,3.688E3,7.374E3,7.744E3,8.483E3,2.345E3,6.371E3,1.087E3,9.866E3,5.224E3,1.2828E4,1.3339E4,1.887E3,5.89E3,6.488E3,4.838E3,3.735E3,5.452E3,6.725E3,5.528E3,3.22E3,4.045E3,3.661E3,1.8E1,5.227E3,7.294E3,6.754E3,7.939E3,3.067E3,3.807E3,3.91E3,3.711E3,6.75E2,5.22E2,1.719E3,9E0,6.76E2,8.43E2,1.724E3,1.739E3,1.3869E4,5.706E3,2.5544E4,1.0937E4,1.56E3,1.674E3,2.74E3,5.62E2,8.321E3,5.936E3,1.193E3,1.846E3,4.206E3,5.532E3,7.68E2,7.62E2,9.858E3,9.243E3,1.672E3,2.016E3,6.754E3,6.2E2,6.741E3,1.003E3,3.153E3,5.33E3,1.716E3,6.29E2,3.345E3,3.026E3,2.13E2,8.74E2],"tree_param":{"num_deleted":"0","num_feature":"20","num_nodes":"127","size_leaf_vector":"1"}},{"base_weights":[2.9003792E-4,-5.6464676E-2,5.787913E-2,-8.924451E-2,4.891062E-3,1.12946555E-2,1.3292757E-1,-1.3043304E-1,-1.2056516E-2,-1.322644E-2,9.624428E-2,-2.5527235E-2,9.184354E-2,9.182289E-2,2.1806325E-1,-1.1187546E-1,-1.7138147E-1,7.32645E-3,-4.975632E-2,7.92501E-3,-5.319268E-2,1.4945994E-1,6.3771345E-2,-3.5433013E-2,5.7439297E-2,1.1694611E-1,5.3464886E-2,1.17770515E-1,5.2437518E-2,2.4630432E-1,1.7764512E-1,-1.3128994E-1,-8.389445E-2,-1.8925563E-1,-1.4814596E-1,-1.936405E-2,3.179249E-2,-6.605724E-2,-2.9754287E-2,-2.0542536E-2,3.4690518E-2,-7.506305E-2,-3.2567736E-2,9.445346E-2,1.8308906E-1,2.7404608E-2,8.2547955E-2,-2.0357644E-2,-7.1240306E-2,3.183552E-2,8.015675E-2,1.0293596E-1,1.807038E-1,4.2687E-2,1.1782549E-1,1.062044E-1,1.7462318E-1,3.0826991E-2,8.0367714E-2,2.3063402E-1,3.0091235E-1,1.6600424E-1,2.448045E-1,-7.3759863E-3,-5.856322E-3,-4.6445117E-3,-3.400874E-3,-9.9444715E-3,-8.706444E-3,-7.801078E-3,-6.838882E-3,-1.8047395E-3,-5.089297E-4,8.815881E-4,2.3245604E-3,-4.4609965E-3,-3.0400066E-3,-1.8678751E-3,-7.020533E-4,-1.7636009E-3,-5.0344586E-4,1.201406E-3,2.7658455E-3,-4.430603E-3,-3.3671714E-3,-2.3285183E-3,-1.1265159E-3,3.1278331E-3,5.634091E-3,9.102741E-3,1.2830089E-2,4.435746E-4,2.0309372E-3,3.3440243E-3,4.925342E-3,-1.8434589E-3,2.3195041E-4,-4.9634455E-3,-1.6949533E-3,7.7896734E-4,2.373826E-3,4.379221E-3,2.1778087E-3,4.237773E-3,6.0563954E-3,7.3745744E-3,9.937915E-3,1.24474E-3,3.2802974E-3,4.0859147E-3,6.856715E-3,4.4998685E-3,6.722659E-3,6.761151E-3,9.52997E-3,1.2477281E-3,4.4421568E-3,3.5819192E-3,6.8466873E-3,1.0758563E-2,1.3213347E-2,1.3209817E-2,1.5659785E-2,7.218098E-3,9.093563E-3,1.13853775E-2,1.3837494E-2],"categories":[],"categories_nodes":[],"categories_segments":[],"categories_sizes":[],"default_left":[0,0,0,0,0,0,0,0,0,0,0,0,0,0,0,0,0,0,0,0,0,0,0,0,0,0,0,0,0,0,0,0,0,0,0,0,0,0,0,0,0,0,0,0,0,0,0,0,0,0,0,0,0,0,0,0,0,0,0,0,0,0,0,0,0,0,0,0,0,0,0,0,0,0,0,0,0,0,0,0,0,0,0,0,0,0,0,0,0,0,0,0,0,0,0,0,0,0,0,0,0,0,0,0,0,0,0,0,0,0,0,0,0,0,0,0,0,0,0,0,0,0,0,0,0,0,0],"id":8,"left_children":[1,3,5,7,9,11,13,15,17,19,21,23,25,27,29,31,33,35,37,39,41,43,45,47,49,51,53,55,57,59,61,63,65,67,69,71,73,75,77,79,81,83,85,87,89,91,93,95,97,99,101,103,105,107,109,111,113,115,117,119,121,123,125,-1,-1,-1,-1,-1,-1,-1,-1,-1,-1,-1,-1,-1,-1,-1,-1,-1,-1,-1,-1,-1,-1,-1,-1,-1,-1,-1,-1,-1,-1,-1,-1,-1,-1,-1,-1,-1,-1,-1,-1,-1,-1,-1,-1,-1,-1,-1,-1,-1,-1,-1,-1,-1,-1,-1,-1,-1,-1,-1,-1,-1,-1,-1,-1],"loss_changes":[9.477728E2,2.9373264E2,5.0319098E2,3.026322E2,8.417429E1,2.6340054E2,1.9288501E2,4.714734E1,2.4203735E1,3.5877663E1,1.4535622E1,5.00912E1,2.6835114E1,3.798712E1,2.0443054E1,2.319336E1,8.010376E0,1.4285881E1,3.6651344E0,2.1147827E1,6.6229477E0,5.8817825E0,3.5683289E0,2.938948E1,3.7787704E0,1.5026489E1,7.6385307E0,1.4718109E1,8.9106865E0,8.969543E0,5.7337036E0,5.7791443E0,2.4931335E0,1.559082E0,7.325134E-1,1.6075809E0,2.3749428E0,7.4905586E-1,6.030426E-1,2.0745888E0,3.144722E0,7.3957443E-1,1.0616503E0,6.9763947E-1,1.0366821E-1,4.3604982E-1,8.555336E-1,1.5814863E1,1.6879715E1,7.7679586E-1,9.324608E-1,4.557556E0,1.78936E0,3.8477974E0,1.0903492E0,8.514969E0,2.3580093E0,2.8347564E0,3.1706505E0,4.2138367E0,9.779968E-1,2.1364594E0,5.3176117E-1,0E0,0E0,0E0,0E0,0E0,0E0,0E0,0E0,0E0,0E0,0E0,0E0,0E0,0E0,0E0,0E0,0E0,0E0,0E0,0E0,0E0,0E0,0E0,0E0,0E0,0E0,0E0,0E0,0E0,0E0,0E0,0E0,0E0,0E0,0E0,0E0,0E0,0E0,0E0,0E0,0E0,0E0,0E0,0E0,0E0,0E0,0E0,0E0,0E0,0E0,0E0,0E0,0E0,0E0,0E0,0E0,0E0,0E0,0E0,0E0,0E0,0E0,0E0,0E0],"parents":[2147483647,0,0,1,1,2,2,3,3,4,4,5,5,6,6,7,7,8,8,9,9,10,10,11,11,12,12,13,13,14,14,15,15,16,16,17,17,18,18,19,19,20,20,21,21,22,22,23,23,24,24,25,25,26,26,27,27,28,28,29,29,30,30,31,31,32,32,33,33,34,34,35,35,36,36,37,37,38,38,39,39,40,40,41,41,42,42,43,43,44,44,45,45,46,46,47,47,48,48,49,49,50,50,51,51,52,52,53,53,54,54,55,55,56,56,57,57,58,58,59,59,60,60,61,61,62,62],"right_children":[2,4,6,8,10,12,14,16,18,20,22,24,26,28,30,32,34,36,38,40,42,44,46,48,50,52,54,56,58,60,62,64,66,68,70,72,74,76,78,80,82,84,86,88,90,92,94,96,98,100,102,104,106,108,110,112,114,116,118,120,122,124,126,-1,-1,-1,-1,-1,-1,-1,-1,-1,-1,-1,-1,-1,-1,-1,-1,-1,-1,-1,-1,-1,-1,-1,-1,-1,-1,-1,-1,-1,-1,-1,-1,-1,-1,-1,-1,-1,-1,-1,-1,-1,-1,-1,-1,-1,-1,-1,-1,-1,-1,-1,-1,-1,-1,-1,-1,-1,-1,-1,-1,-1,-1,-1,-1],"split_conditions":[1.1426249E-1,8.7878096E-1,8.7878096E-1,1E0,1E0,1E0,1E0,1E0,1E0,1E0,1E0,2.022279E0,1E0,1E0,1E0,-6.1922044E-1,-6.558946E-1,-9.492877E-1,-7.65917E-1,-8.759394E-1,-8.759394E-1,-9.4892097E-1,-1.2060068E0,1E0,1.0311161E0,2.022279E0,2.022279E0,2.022279E0,9.94442E-1,2.022279E0,2.022279E0,-1.2060068E0,-2.1543807E-1,-1.10772E0,-2.1580482E-1,-1.4993999E0,-4.358497E-1,-1.5727482E0,-2.8878635E-1,-1.4260516E0,-2.1580482E-1,-1.4260516E0,-4.7252384E-1,-1.4260516E0,2.022279E0,-1.536074E0,-5.8254623E-1,9.5776784E-1,1.1778127E0,5.9102637E-1,1E0,7.3772293E-1,7.010488E-1,8.8441956E-1,7.3772293E-1,1.0311161E0,5.228125E-1,2.022279E0,2.022279E0,1.0311161E0,5.228125E-1,7.010488E-1,1.2144868E0,-7.3759863E-3,-5.856322E-3,-4.6445117E-3,-3.400874E-3,-9.9444715E-3,-8.706444E-3,-7.801078E-3,-6.838882E-3,-1.8047395E-3,-5.089297E-4,8.815881E-4,2.3245604E-3,-4.4609965E-3,-3.0400066E-3,-1.8678751E-3,-7.020533E-4,-1.7636009E-3,-5.0344586E-4,1.201406E-3,2.7658455E-3,-4.430603E-3,-3.3671714E-3,-2.3285183E-3,-1.1265159E-3,3.1278331E-3,5.634091E-3,9.102741E-3,1.2830089E-2,4.435746E-4,2.0309372E-3,3.3440243E-3,4.925342E-3,-1.8434589E-3,2.3195041E-4,-4.9634455E-3,-1.6949533E-3,7.7896734E-4,2.373826E-3,4.379221E-3,2.1778087E-3,4.237773E-3,6.0563954E-3,7.3745744E-3,9.937915E-3,1.24474E-3,3.2802974E-3,4.0859147E-3,6.856715E-3,4.4998685E-3,6.722659E-3,6.761151E-3,9.52997E-3,1.2477281E-3,4.4421568E-3,3.5819192E-3,6.8466873E-3,1.0758563E-2,1.3213347E-2,1.3209817E-2,1.5659785E-2,7.218098E-3,9.093563E-3,1.13853775E-2,1.3837494E-2],"split_indices":[0,3,3,9,9,9,9,10,10,10,10,2,10,10,10,0,0,0,0,0,0,0,0,10,0,2,2,2,0,2,2,0,0,0,0,0,0,0,0,0,0,0,0,0,2,0,0,0,0,0,10,0,0,0,0,0,0,2,2,0,0,0,0,0,0,0,0,0,0,0,0,0,0,0,0,0,0,0,0,0,0,0,0,0,0,0,0,0,0,0,0,0,0,0,0,0,0,0,0,0,0,0,0,0,0,0,0,0,0,0,0,0,0,0,0,0,0,0,0,0,0,0,0,0,0,0,0],"split_type":[0,0,0,0,0,0,0,0,0,0,0,0,0,0,0,0,0,0,0,0,0,0,0,0,0,0,0,0,0,0,0,0,0,0,0,0,0,0,0,0,0,0,0,0,0,0,0,0,0,0,0,0,0,0,0,0,0,0,0,0,0,0,0,0,0,0,0,0,0,0,0,0,0,0,0,0,0,0,0,0,0,0,0,0,0,0,0,0,0,0,0,0,0,0,0,0,0,0,0,0,0,0,0,0,0,0,0,0,0,0,0,0,0,0,0,0,0,0,0,0,0,0,0,0,0,0,0],"sum_hessian":[2.89974E5,1.46045E5,1.43929E5,9.5189E4,5.0856E4,8.8806E4,5.5123E4,6.2068E4,3.3121E4,4.244E4,8.416E3,6.0946E4,2.786E4,3.7176E4,1.7947E4,4.2714E4,1.9354E4,2.1875E4,1.1246E4,2.7753E4,1.4687E4,3.188E3,5.228E3,5.4446E4,6.5E3,1.6842E4,1.1018E4,2.241E4,1.4766E4,1.0562E4,7.385E3,2.5215E4,1.7499E4,1.0935E4,8.419E3,1.0462E4,1.1413E4,6.195E3,5.051E3,1.3449E4,1.4304E4,7.127E3,7.56E3,1.211E3,1.977E3,1.781E3,3.447E3,3.8316E4,1.613E4,3.057E3,3.443E3,1.381E4,3.032E3,9.439E3,1.579E3,1.8624E4,3.786E3,8.326E3,6.44E3,8.211E3,2.351E3,6.297E3,1.088E3,1.1746E4,1.3469E4,1.1167E4,6.332E3,6.673E3,4.262E3,4.966E3,3.453E3,3.707E3,6.755E3,5.814E3,5.599E3,1.143E3,5.052E3,3.403E3,1.648E3,5.588E3,7.861E3,9.431E3,4.873E3,2.583E3,4.544E3,3.155E3,4.405E3,4.42E2,7.69E2,1.953E3,2.4E1,7.42E2,1.039E3,1.742E3,1.705E3,2.3074E4,1.5242E4,9.213E3,6.917E3,1.5E3,1.557E3,2.861E3,5.82E2,6.91E3,6.9E3,1.071E3,1.961E3,5.315E3,4.124E3,5.52E2,1.027E3,1.1837E4,6.787E3,1.095E3,2.691E3,7.562E3,7.64E2,5.581E3,8.59E2,5.63E3,2.581E3,5.95E2,1.756E3,2.668E3,3.629E3,7.14E2,3.74E2],"tree_param":{"num_deleted":"0","num_feature":"20","num_nodes":"127","size_leaf_vector":"1"}},{"base_weights":[-2.2522245E-6,-5.5288754E-2,5.353393E-2,-8.613952E-2,2.6704755E-3,9.303704E-3,1.2505597E-1,-1.253418E-1,-1.3148796E-2,-1.3764334E-2,8.87123E-2,-2.5643382E-2,8.595604E-2,8.600699E-2,2.061944E-1,-1.0757931E-1,-1.6400945E-1,5.4678335E-3,-4.968852E-2,6.3783843E-3,-5.12396E-2,1.381947E-1,5.9072733E-2,-3.5030216E-2,5.3755622E-2,1.1011023E-1,4.875975E-2,1.11216255E-1,4.8020177E-2,2.328326E-1,1.6742934E-1,-1.312043E-1,-8.8202454E-2,-1.8047899E-1,-1.4183861E-1,-1.5148016E-2,3.1116765E-2,-6.6384375E-2,-3.344E-2,-2.1168085E-2,2.9602448E-2,-7.2032E-2,-3.2715037E-2,9.094069E-2,1.7151582E-1,3.6252502E-2,8.289228E-2,-6.5760925E-2,-1.8674431E-2,2.9332712E-2,7.5732015E-2,9.690688E-2,1.7264146E-1,3.9000385E-2,1.0900186E-1,1.00727424E-1,1.6519304E-1,1.7567998E-2,6.7449324E-2,2.1827966E-1,2.8450906E-1,1.563954E-1,2.3289014E-1,-7.1191215E-3,-5.9250765E-3,-4.791752E-3,-3.4099873E-3,-9.549784E-3,-8.429184E-3,-7.0972927E-3,1.8229512E-2,-1.320759E-3,-3.9865263E-5,9.191635E-4,2.1138852E-3,-3.8881227E-3,-2.9144553E-3,-1.6200597E-3,-8.459895E-3,-1.6008717E-3,-4.8482214E-4,7.1268366E-4,2.1087343E-3,-4.2017964E-3,-3.2775667E-3,-2.2836889E-3,-1.0874277E-3,5.3653065E-3,3.0878312E-3,7.219626E-3,8.743932E-3,4.422485E-4,2.2466802E-3,3.5998311E-3,4.5109573E-3,-2.3844908E-3,-5.5217696E-3,-3.2208028E-4,-2.364702E-3,6.799404E-4,2.2429095E-3,4.153704E-3,1.9194911E-3,4.139725E-3,6.002184E-3,7.6290616E-3,1.0062718E-2,5.2150036E-4,2.6703195E-3,4.290621E-3,6.8995166E-3,4.0162993E-3,6.1211064E-3,7.2721043E-3,9.669552E-3,6.033868E-4,3.9012001E-3,2.9748876E-3,6.125687E-3,9.465249E-3,1.1785E-2,1.3225946E-2,1.5359282E-2,7.13666E-3,8.965726E-3,1.0865401E-2,1.3000989E-2],"categories":[],"categories_nodes":[],"categories_segments":[],"categories_sizes":[],"default_left":[0,0,0,0,0,0,0,0,0,0,0,0,0,0,0,0,0,0,0,0,0,0,0,0,0,0,0,0,0,0,0,0,0,0,0,0,0,0,0,0,0,0,0,0,0,0,0,0,0,0,0,0,0,0,0,0,0,0,0,0,0,0,0,0,0,0,0,0,0,0,0,0,0,0,0,0,0,0,0,0,0,0,0,0,0,0,0,0,0,0,0,0,0,0,0,0,0,0,0,0,0,0,0,0,0,0,0,0,0,0,0,0,0,0,0,0,0,0,0,0,0,0,0,0,0,0,0],"id":9,"left_children":[1,3,5,7,9,11,13,15,17,19,21,23,25,27,29,31,33,35,37,39,41,43,45,47,49,51,53,55,57,59,61,63,65,67,69,71,73,75,77,79,81,83,85,87,89,91,93,95,97,99,101,103,105,107,109,111,113,115,117,119,121,123,125,-1,-1,-1,-1,-1,-1,-1,-1,-1,-1,-1,-1,-1,-1,-1,-1,-1,-1,-1,-1,-1,-1,-1,-1,-1,-1,-1,-1,-1,-1,-1,-1,-1,-1,-1,-1,-1,-1,-1,-1,-1,-1,-1,-1,-1,-1,-1,-1,-1,-1,-1,-1,-1,-1,-1,-1,-1,-1,-1,-1,-1,-1,-1,-1],"loss_changes":[8.5753925E2,2.5486154E2,4.656345E2,2.6616608E2,7.001803E1,2.4363686E2,1.7818414E2,4.1547424E1,2.2111008E1,3.1382614E1,1.1638397E1,4.6561092E1,2.5583282E1,3.635742E1,1.8830322E1,1.897293E1,6.9292603E0,1.1387102E1,2.9740238E0,1.7299862E1,5.5957108E0,4.667137E0,2.6974373E0,2.8078415E1,3.5428638E0,1.4239288E1,6.589325E0,1.2905243E1,8.961868E0,8.080994E0,5.3417664E0,2.636261E0,3.4723969E0,1.3345032E0,4.9290466E-1,1.9304173E0,1.3629847E0,4.937744E-1,7.7890825E-1,1.539257E0,2.8306313E0,5.271416E-1,1.0915613E0,5.8179E-1,1.3372803E-1,6.0370064E-1,1.8749428E-1,1.5660721E1,1.2764995E1,7.639749E-1,9.4981956E-1,4.6458435E0,1.6963959E0,3.9724712E0,1.0388489E0,8.449631E0,2.0392303E0,1.9616145E0,4.041935E0,4.222046E0,9.958191E-1,1.970581E0,3.966713E-1,0E0,0E0,0E0,0E0,0E0,0E0,0E0,0E0,0E0,0E0,0E0,0E0,0E0,0E0,0E0,0E0,0E0,0E0,0E0,0E0,0E0,0E0,0E0,0E0,0E0,0E0,0E0,0E0,0E0,0E0,0E0,0E0,0E0,0E0,0E0,0E0,0E0,0E0,0E0,0E0,0E0,0E0,0E0,0E0,0E0,0E0,0E0,0E0,0E0,0E0,0E0,0E0,0E0,0E0,0E0,0E0,0E0,0E0,0E0,0E0,0E0,0E0,0E0,0E0],"parents":[2147483647,0,0,1,1,2,2,3,3,4,4,5,5,6,6,7,7,8,8,9,9,10,10,11,11,12,12,13,13,14,14,15,15,16,16,17,17,18,18,19,19,20,20,21,21,22,22,23,23,24,24,25,25,26,26,27,27,28,28,29,29,30,30,31,31,32,32,33,33,34,34,35,35,36,36,37,37,38,38,39,39,40,40,41,41,42,42,43,43,44,44,45,45,46,46,47,47,48,48,49,49,50,50,51,51,52,52,53,53,54,54,55,55,56,56,57,57,58,58,59,59,60,60,61,61,62,62],"right_children":[2,4,6,8,10,12,14,16,18,20,22,24,26,28,30,32,34,36,38,40,42,44,46,48,50,52,54,56,58,60,62,64,66,68,70,72,74,76,78,80,82,84,86,88,90,92,94,96,98,100,102,104,106,108,110,112,114,116,118,120,122,124,126,-1,-1,-1,-1,-1,-1,-1,-1,-1,-1,-1,-1,-1,-1,-1,-1,-1,-1,-1,-1,-1,-1,-1,-1,-1,-1,-1,-1,-1,-1,-1,-1,-1,-1,-1,-1,-1,-1,-1,-1,-1,-1,-1,-1,-1,-1,-1,-1,-1,-1,-1,-1,-1,-1,-1,-1,-1,-1,-1,-1,-1,-1,-1,-1],"split_conditions":[7.758835E-2,8.7878096E-1,8.7878096E-1,1E0,1E0,1E0,1E0,1E0,1E0,1E0,1E0,2.022279E0,1E0,1E0,1E0,-8.759394E-1,-6.558946E-1,-8.392653E-1,-8.759394E-1,-9.492877E-1,-9.4892097E-1,-9.492877E-1,-9.492877E-1,5.649877E-1,1.0311161E0,2.022279E0,2.022279E0,2.022279E0,7.010488E-1,2.022279E0,2.022279E0,-1.279355E0,-2.1580482E-1,-1.2060068E0,2.022279E0,-1.2547834E0,-4.358497E-1,-1.3750745E0,2.022279E0,-1.3750745E0,-4.358497E-1,-1.4627258E0,-4.7252384E-1,1E0,-6.558946E-1,-1.5727482E0,-5.8217955E-1,1E0,1E0,5.8662546E-1,1E0,8.8441956E-1,1.0677903E0,5.649877E-1,1.1411386E0,8.110713E-1,1.0311161E0,2.022279E0,2.022279E0,5.228125E-1,9.94442E-1,9.5776784E-1,1.2144868E0,-7.1191215E-3,-5.9250765E-3,-4.791752E-3,-3.4099873E-3,-9.549784E-3,-8.429184E-3,-7.0972927E-3,1.8229512E-2,-1.320759E-3,-3.9865263E-5,9.191635E-4,2.1138852E-3,-3.8881227E-3,-2.9144553E-3,-1.6200597E-3,-8.459895E-3,-1.6008717E-3,-4.8482214E-4,7.1268366E-4,2.1087343E-3,-4.2017964E-3,-3.2775667E-3,-2.2836889E-3,-1.0874277E-3,5.3653065E-3,3.0878312E-3,7.219626E-3,8.743932E-3,4.422485E-4,2.2466802E-3,3.5998311E-3,4.5109573E-3,-2.3844908E-3,-5.5217696E-3,-3.2208028E-4,-2.364702E-3,6.799404E-4,2.2429095E-3,4.153704E-3,1.9194911E-3,4.139725E-3,6.002184E-3,7.6290616E-3,1.0062718E-2,5.2150036E-4,2.6703195E-3,4.290621E-3,6.8995166E-3,4.0162993E-3,6.1211064E-3,7.2721043E-3,9.669552E-3,6.033868E-4,3.9012001E-3,2.9748876E-3,6.125687E-3,9.465249E-3,1.1785E-2,1.3225946E-2,1.5359282E-2,7.13666E-3,8.965726E-3,1.0865401E-2,1.3000989E-2],"split_indices":[0,3,3,9,9,9,9,10,10,10,10,2,10,10,10,0,0,0,0,0,0,0,0,0,0,2,2,2,0,2,2,0,0,0,2,0,0,0,2,0,0,0,0,17,0,0,0,10,10,0,10,0,0,0,0,0,0,2,2,0,0,0,0,0,0,0,0,0,0,0,0,0,0,0,0,0,0,0,0,0,0,0,0,0,0,0,0,0,0,0,0,0,0,0,0,0,0,0,0,0,0,0,0,0,0,0,0,0,0,0,0,0,0,0,0,0,0,0,0,0,0,0,0,0,0,0,0],"split_type":[0,0,0,0,0,0,0,0,0,0,0,0,0,0,0,0,0,0,0,0,0,0,0,0,0,0,0,0,0,0,0,0,0,0,0,0,0,0,0,0,0,0,0,0,0,0,0,0,0,0,0,0,0,0,0,0,0,0,0,0,0,0,0,0,0,0,0,0,0,0,0,0,0,0,0,0,0,0,0,0,0,0,0,0,0,0,0,0,0,0,0,0,0,0,0,0,0,0,0,0,0,0,0,0,0,0,0,0,0,0,0,0,0,0,0,0,0,0,0,0,0,0,0,0,0,0,0],"sum_hessian":[2.89724E5,1.42532E5,1.47192E5,9.3019E4,4.9513E4,9.0949E4,5.6243E4,6.0516E4,3.2503E4,4.1573E4,7.94E3,6.2469E4,2.848E4,3.7971E4,1.8272E4,4.147E4,1.9046E4,2.1533E4,1.097E4,2.704E4,1.4533E4,2.973E3,4.967E3,5.5865E4,6.604E3,1.7266E4,1.1214E4,2.2823E4,1.5148E4,1.0827E4,7.445E3,1.8684E4,2.2786E4,1.0924E4,8.122E3,1.1938E4,9.595E3,5.409E3,5.561E3,1.2369E4,1.4671E4,6.846E3,7.687E3,1.231E3,1.742E3,2.538E3,2.429E3,1.9404E4,3.6461E4,3.129E3,3.475E3,1.4258E4,3.008E3,9.652E3,1.562E3,1.9112E4,3.711E3,5.901E3,9.247E3,8.452E3,2.375E3,6.374E3,1.071E3,9.933E3,8.751E3,1.649E4,6.296E3,5.79E3,5.134E3,8.121E3,1E0,6.687E3,5.251E3,4.483E3,5.112E3,2.245E3,3.164E3,5.52E3,4.1E1,6.356E3,6.013E3,6.607E3,8.064E3,2.396E3,4.45E3,3.522E3,4.165E3,7.87E2,4.44E2,1.97E2,1.545E3,6.11E2,1.927E3,9.81E2,1.448E3,1.3817E4,5.587E3,2.5544E4,1.0917E4,1.555E3,1.574E3,2.903E3,5.72E2,8.859E3,5.399E3,1.772E3,1.236E3,3.236E3,6.416E3,8.7E2,6.92E2,9.852E3,9.26E3,2.186E3,1.525E3,5.41E3,4.91E2,8.082E3,1.165E3,3.178E3,5.274E3,1.269E3,1.106E3,3.998E3,2.376E3,6.86E2,3.85E2],"tree_param":{"num_deleted":"0","num_feature":"20","num_nodes":"127","size_leaf_vector":"1"}},{"base_weights":[7.164062E-5,-5.114761E-2,5.2178886E-2,-8.076408E-2,4.4051073E-3,1.0131505E-2,1.1969548E-1,-1.1777157E-1,-1.0795883E-2,-1.17350845E-2,8.7193854E-2,-2.3160877E-2,8.280519E-2,8.26335E-2,1.9683462E-1,-1.01080015E-1,-1.5449107E-1,6.9422936E-3,-4.57157E-2,7.6255184E-3,-4.8422456E-2,1.3427235E-1,5.773771E-2,-3.175996E-2,5.0958633E-2,1.0533886E-1,4.8187807E-2,1.0655776E-1,4.6892945E-2,2.2203995E-1,1.6072097E-1,-1.1770576E-1,-7.4245036E-2,-1.7289141E-1,-1.362759E-1,-1.5740028E-2,3.0695988E-2,-5.84265E-2,-2.2346796E-2,-1.554559E-2,3.4067255E-2,-6.3710995E-2,-2.6358359E-2,8.0979235E-2,1.6337253E-1,2.923211E-2,7.5197615E-2,-5.136168E-2,-1.0064631E-2,2.1364622E-2,6.738719E-2,9.3015544E-2,1.6384917E-1,3.8442336E-2,1.0668587E-1,9.642643E-2,1.5643805E-1,1.8317256E-2,6.45646E-2,2.0809685E-1,2.70654E-1,1.5039718E-1,2.2152516E-1,-6.671467E-3,-5.2518263E-3,-4.087586E-3,-3.0104758E-3,-9.095072E-3,-8.091066E-3,-7.169059E-3,-6.1671375E-3,-1.4467026E-3,-2.2081782E-4,1.2784557E-3,3.2594649E-3,-3.5412547E-3,-2.5037096E-3,-1.7587962E-3,-8.7926444E-4,-1.3140434E-3,-9.6898926E-5,1.4196655E-3,3.0551706E-3,-3.8238994E-3,-2.7404397E-3,-1.2734885E-3,-7.3192627E-3,4.820866E-3,2.7294562E-3,6.3446998E-3,8.302186E-3,8.55424E-4,2.3080034E-3,3.122525E-3,4.3833083E-3,-1.778818E-3,-4.733939E-3,1.0328154E-4,-1.7567426E-3,2.649252E-4,1.6277469E-3,2.5380543E-3,3.8018215E-3,3.9474587E-3,5.6565474E-3,6.4758174E-3,8.967526E-3,1.1783848E-3,3.0960217E-3,3.7335106E-3,6.274721E-3,4.1210256E-3,6.165792E-3,6.5163127E-3,8.74364E-3,6.554376E-4,3.5523425E-3,2.8738293E-3,5.794195E-3,9.380779E-3,1.1541622E-2,1.2906516E-2,1.5173641E-2,6.386285E-3,8.15818E-3,9.873166E-3,1.1942472E-2],"categories":[],"categories_nodes":[],"categories_segments":[],"categories_sizes":[],"default_left":[0,0,0,0,0,0,0,0,0,0,0,0,0,0,0,0,0,0,0,0,0,0,0,0,0,0,0,0,0,0,0,0,0,0,0,0,0,0,0,0,0,0,0,0,0,0,0,0,0,0,0,0,0,0,0,0,0,0,0,0,0,0,0,0,0,0,0,0,0,0,0,0,0,0,0,0,0,0,0,0,0,0,0,0,0,0,0,0,0,0,0,0,0,0,0,0,0,0,0,0,0,0,0,0,0,0,0,0,0,0,0,0,0,0,0,0,0,0,0,0,0,0,0,0,0,0,0],"id":10,"left_children":[1,3,5,7,9,11,13,15,17,19,21,23,25,27,29,31,33,35,37,39,41,43,45,47,49,51,53,55,57,59,61,63,65,67,69,71,73,75,77,79,81,83,85,87,89,91,93,95,97,99,101,103,105,107,109,111,113,115,117,119,121,123,125,-1,-1,-1,-1,-1,-1,-1,-1,-1,-1,-1,-1,-1,-1,-1,-1,-1,-1,-1,-1,-1,-1,-1,-1,-1,-1,-1,-1,-1,-1,-1,-1,-1,-1,-1,-1,-1,-1,-1,-1,-1,-1,-1,-1,-1,-1,-1,-1,-1,-1,-1,-1,-1,-1,-1,-1,-1,-1,-1,-1,-1,-1,-1,-1],"loss_changes":[7.7358167E2,2.4049191E2,4.0789136E2,2.4687225E2,6.792141E1,2.142251E2,1.5762512E2,3.820453E1,2.0431067E1,3.0214668E1,1.1492573E1,3.870465E1,2.1694534E1,3.1843658E1,1.6252441E1,1.9119598E1,6.5074463E0,1.1785951E1,3.299078E0,1.7060726E1,4.955017E0,4.9354973E0,2.53759E0,2.3139042E1,3.0678577E0,1.2133591E1,6.249796E0,1.1259872E1,7.5417023E0,7.085266E0,4.586151E0,5.2591553E0,1.7234039E0,9.3707275E-1,8.825836E-1,1.6717119E0,1.8879004E0,7.416496E-1,2.3859417E-1,2.1679447E0,1.9932547E0,9.8221207E-1,6.379051E-1,4.5470524E-1,1.799469E-1,3.9735317E-1,4.97406E-1,1.954232E1,7.8545833E0,4.0524244E-1,5.798378E-1,3.929741E0,1.5361252E0,3.2830343E0,9.336262E-1,6.9748383E0,1.7895432E0,1.5670016E0,3.350399E0,3.7713013E0,8.8549805E-1,1.8008575E0,3.9720154E-1,0E0,0E0,0E0,0E0,0E0,0E0,0E0,0E0,0E0,0E0,0E0,0E0,0E0,0E0,0E0,0E0,0E0,0E0,0E0,0E0,0E0,0E0,0E0,0E0,0E0,0E0,0E0,0E0,0E0,0E0,0E0,0E0,0E0,0E0,0E0,0E0,0E0,0E0,0E0,0E0,0E0,0E0,0E0,0E0,0E0,0E0,0E0,0E0,0E0,0E0,0E0,0E0,0E0,0E0,0E0,0E0,0E0,0E0,0E0,0E0,0E0,0E0,0E0,0E0],"parents":[2147483647,0,0,1,1,2,2,3,3,4,4,5,5,6,6,7,7,8,8,9,9,10,10,11,11,12,12,13,13,14,14,15,15,16,16,17,17,18,18,19,19,20,20,21,21,22,22,23,23,24,24,25,25,26,26,27,27,28,28,29,29,30,30,31,31,32,32,33,33,34,34,35,35,36,36,37,37,38,38,39,39,40,40,41,41,42,42,43,43,44,44,45,45,46,46,47,47,48,48,49,49,50,50,51,51,52,52,53,53,54,54,55,55,56,56,57,57,58,58,59,59,60,60,61,61,62,62],"right_children":[2,4,6,8,10,12,14,16,18,20,22,24,26,28,30,32,34,36,38,40,42,44,46,48,50,52,54,56,58,60,62,64,66,68,70,72,74,76,78,80,82,84,86,88,90,92,94,96,98,100,102,104,106,108,110,112,114,116,118,120,122,124,126,-1,-1,-1,-1,-1,-1,-1,-1,-1,-1,-1,-1,-1,-1,-1,-1,-1,-1,-1,-1,-1,-1,-1,-1,-1,-1,-1,-1,-1,-1,-1,-1,-1,-1,-1,-1,-1,-1,-1,-1,-1,-1,-1,-1,-1,-1,-1,-1,-1,-1,-1,-1,-1,-1,-1,-1,-1,-1,-1,-1,-1,-1,-1,-1],"split_conditions":[1.1426249E-1,8.7878096E-1,8.7878096E-1,1E0,1E0,1E0,1E0,1E0,1E0,1E0,1E0,2.022279E0,1E0,1E0,1E0,-5.8254623E-1,-7.65917E-1,-8.759394E-1,-5.8254623E-1,-7.65917E-1,-6.558946E-1,-1.022636E0,-1.1693326E0,8.8441956E-1,8.110713E-1,2.022279E0,2.022279E0,2.022279E0,7.010488E-1,2.022279E0,2.022279E0,-1.2060068E0,-1.4245652E-1,-1.2547834E0,-2.1580482E-1,-1.3750745E0,-6.910823E-2,-1.2547834E0,-4.358497E-1,-1.2547834E0,-6.910823E-2,-1.279355E0,2.022279E0,1E0,-8.759394E-1,-1.3750745E0,-5.8217955E-1,1E0,1E0,3.3870825E-1,1.251161E0,8.477454E-1,6.277005E-1,9.5776784E-1,8.110713E-1,1.0677903E0,7.3772293E-1,2.022279E0,2.022279E0,8.110713E-1,1.3978575E0,6.277005E-1,8.477454E-1,-6.671467E-3,-5.2518263E-3,-4.087586E-3,-3.0104758E-3,-9.095072E-3,-8.091066E-3,-7.169059E-3,-6.1671375E-3,-1.4467026E-3,-2.2081782E-4,1.2784557E-3,3.2594649E-3,-3.5412547E-3,-2.5037096E-3,-1.7587962E-3,-8.7926444E-4,-1.3140434E-3,-9.6898926E-5,1.4196655E-3,3.0551706E-3,-3.8238994E-3,-2.7404397E-3,-1.2734885E-3,-7.3192627E-3,4.820866E-3,2.7294562E-3,6.3446998E-3,8.302186E-3,8.55424E-4,2.3080034E-3,3.122525E-3,4.3833083E-3,-1.778818E-3,-4.733939E-3,1.0328154E-4,-1.7567426E-3,2.649252E-4,1.6277469E-3,2.5380543E-3,3.8018215E-3,3.9474587E-3,5.6565474E-3,6.4758174E-3,8.967526E-3,1.1783848E-3,3.0960217E-3,3.7335106E-3,6.274721E-3,4.1210256E-3,6.165792E-3,6.5163127E-3,8.74364E-3,6.554376E-4,3.5523425E-3,2.8738293E-3,5.794195E-3,9.380779E-3,1.1541622E-2,1.2906516E-2,1.5173641E-2,6.386285E-3,8.15818E-3,9.873166E-3,1.1942472E-2],"split_indices":[0,3,3,9,9,9,9,10,10,10,10,2,10,10,10,0,0,0,0,0,0,0,0,0,0,2,2,2,0,2,2,0,0,0,0,0,0,0,0,0,0,0,2,17,0,0,0,10,10,0,0,0,0,0,0,0,0,2,2,0,0,0,0,0,0,0,0,0,0,0,0,0,0,0,0,0,0,0,0,0,0,0,0,0,0,0,0,0,0,0,0,0,0,0,0,0,0,0,0,0,0,0,0,0,0,0,0,0,0,0,0,0,0,0,0,0,0,0,0,0,0,0,0,0,0,0,0],"split_type":[0,0,0,0,0,0,0,0,0,0,0,0,0,0,0,0,0,0,0,0,0,0,0,0,0,0,0,0,0,0,0,0,0,0,0,0,0,0,0,0,0,0,0,0,0,0,0,0,0,0,0,0,0,0,0,0,0,0,0,0,0,0,0,0,0,0,0,0,0,0,0,0,0,0,0,0,0,0,0,0,0,0,0,0,0,0,0,0,0,0,0,0,0,0,0,0,0,0,0,0,0,0,0,0,0,0,0,0,0,0,0,0,0,0,0,0,0,0,0,0,0,0,0,0,0,0,0],"sum_hessian":[2.89849E5,1.4617E5,1.43679E5,9.5341E4,5.0829E4,8.854E4,5.5139E4,6.2358E4,3.2983E4,4.2537E4,8.292E3,6.0723E4,2.7817E4,3.7246E4,1.7893E4,4.2873E4,1.9485E4,2.1873E4,1.111E4,2.7844E4,1.4693E4,3.19E3,5.102E3,5.4411E4,6.312E3,1.6848E4,1.0969E4,2.231E4,1.4936E4,1.0535E4,7.358E3,2.647E4,1.6403E4,9.689E3,9.796E3,1.1189E4,1.0684E4,7.195E3,3.915E3,1.484E4,1.3004E4,8.678E3,6.015E3,1.128E3,2.062E3,1.939E3,3.163E3,2.8584E4,2.5827E4,2.254E3,4.058E3,1.3919E4,2.929E3,9.404E3,1.565E3,1.8546E4,3.764E3,5.708E3,9.228E3,8.191E3,2.344E3,6.293E3,1.065E3,1.1807E4,1.4663E4,1.0684E4,5.719E3,5.333E3,4.356E3,6.316E3,3.48E3,5.167E3,6.022E3,9.303E3,1.381E3,2.893E3,4.302E3,1.058E3,2.857E3,8.295E3,6.545E3,1.075E4,2.254E3,3.562E3,5.116E3,5.972E3,4.3E1,7.1E2,4.18E2,1.44E2,1.918E3,1.131E3,8.08E2,1.567E3,1.596E3,2.0951E4,7.633E3,1.7406E4,8.421E3,9.26E2,1.328E3,1.391E3,2.667E3,8.194E3,5.725E3,9.14E2,2.015E3,5.758E3,3.646E3,5.81E2,9.84E2,1.2197E4,6.349E3,1.561E3,2.203E3,5.196E3,5.12E2,8.11E3,1.118E3,4.314E3,3.877E3,1.703E3,6.41E2,2.271E3,4.022E3,4.51E2,6.14E2],"tree_param":{"num_deleted":"0","num_feature":"20","num_nodes":"127","size_leaf_vector":"1"}},{"base_weights":[-1.02601865E-4,-4.8829783E-2,4.9441893E-2,-7.679627E-2,3.8631186E-3,9.802332E-3,1.1350776E-1,-1.118665E-1,-1.073596E-2,-1.1287173E-2,8.207211E-2,-2.19931E-2,7.884222E-2,7.838291E-2,1.8699463E-1,-9.578226E-2,-1.4693275E-1,6.024843E-3,-4.3603525E-2,6.942319E-3,-4.5469955E-2,1.2735243E-1,5.4061383E-2,-3.0500317E-2,4.9737416E-2,9.9877246E-2,4.641245E-2,1.0074248E-1,4.4766635E-2,2.1096449E-1,1.523226E-1,-1.2050986E-1,-7.972277E-2,-1.626291E-1,-1.2672882E-1,-1.3684182E-2,3.1584743E-2,-6.043322E-2,-2.7950134E-2,-1.8495638E-2,2.8741667E-2,-5.921693E-2,-2.2146078E-2,8.242716E-2,1.5663588E-1,3.4301452E-2,8.0617346E-2,-5.899207E-2,-1.6598511E-2,2.8649835E-2,7.009486E-2,8.79521E-2,1.5538715E-1,3.7239302E-2,1.005187E-1,9.086692E-2,1.4953773E-1,2.7450157E-2,7.126719E-2,1.9720481E-1,2.5794384E-1,1.4269263E-1,2.0940375E-1,-6.424486E-3,-5.457075E-3,-4.386434E-3,-3.0229455E-3,-8.703055E-3,-7.6720975E-3,-6.672665E-3,-5.855306E-3,-1.179771E-3,5.8070593E-5,1.3404288E-3,3.0058608E-3,-3.9035876E-3,-2.7793187E-3,-1.9118142E-3,-8.532665E-4,-1.5057196E-3,-4.710284E-4,6.567761E-4,2.0144614E-3,-3.5354607E-3,-2.4449688E-3,-1.0723777E-3,-7.1983263E-3,4.9511497E-3,2.6637756E-3,6.8443986E-3,7.918137E-3,8.327895E-4,2.4495989E-3,3.8797122E-3,6.221885E-3,-2.1291021E-3,-4.943421E-3,-2.7692996E-4,-2.1350493E-3,5.220037E-4,1.8808295E-3,3.8732234E-3,1.656596E-3,3.546824E-3,5.168529E-3,6.697821E-3,8.932617E-3,1.0649682E-3,2.873481E-3,3.9547896E-3,6.3540176E-3,3.3636147E-3,5.30138E-3,6.7251995E-3,9.122557E-3,1.1165462E-3,3.894516E-3,3.183933E-3,5.8584805E-3,9.157424E-3,1.1384057E-2,1.1243459E-2,1.3462071E-2,6.161342E-3,7.8708455E-3,8.7645715E-3,1.10442685E-2],"categories":[],"categories_nodes":[],"categories_segments":[],"categories_sizes":[],"default_left":[0,0,0,0,0,0,0,0,0,0,0,0,0,0,0,0,0,0,0,0,0,0,0,0,0,0,0,0,0,0,0,0,0,0,0,0,0,0,0,0,0,0,0,0,0,0,0,0,0,0,0,0,0,0,0,0,0,0,0,0,0,0,0,0,0,0,0,0,0,0,0,0,0,0,0,0,0,0,0,0,0,0,0,0,0,0,0,0,0,0,0,0,0,0,0,0,0,0,0,0,0,0,0,0,0,0,0,0,0,0,0,0,0,0,0,0,0,0,0,0,0,0,0,0,0,0,0],"id":11,"left_children":[1,3,5,7,9,11,13,15,17,19,21,23,25,27,29,31,33,35,37,39,41,43,45,47,49,51,53,55,57,59,61,63,65,67,69,71,73,75,77,79,81,83,85,87,89,91,93,95,97,99,101,103,105,107,109,111,113,115,117,119,121,123,125,-1,-1,-1,-1,-1,-1,-1,-1,-1,-1,-1,-1,-1,-1,-1,-1,-1,-1,-1,-1,-1,-1,-1,-1,-1,-1,-1,-1,-1,-1,-1,-1,-1,-1,-1,-1,-1,-1,-1,-1,-1,-1,-1,-1,-1,-1,-1,-1,-1,-1,-1,-1,-1,-1,-1,-1,-1,-1,-1,-1,-1,-1,-1,-1],"loss_changes":[6.986855E2,2.150169E2,3.6442834E2,2.2082916E2,5.994565E1,1.9460646E2,1.4156757E2,3.51037E1,1.8210377E1,2.6410013E1,1.0406139E1,3.7041687E1,1.9064499E1,2.789206E1,1.4709656E1,1.6942352E1,6.1877747E0,1.1029265E1,2.939373E0,1.5328874E1,4.725136E0,4.114025E0,2.6597862E0,2.1492275E1,2.7608967E0,1.1209915E1,5.4558277E0,1.0726578E1,6.8020973E0,6.7268066E0,3.9575653E0,1.5105896E0,3.9864807E0,1.1300659E0,5.385437E-1,1.8189504E0,1.297369E0,4.5551872E-1,6.4716434E-1,1.3448272E0,2.6821194E0,1.09618E0,4.622097E-1,5.9463215E-1,4.304886E-2,7.5378513E-1,2.7701664E-1,1.1639683E1,1.0528616E1,5.1606965E-1,8.892784E-1,3.6548843E0,1.4703445E0,3.0322533E0,8.969784E-1,6.624466E0,1.8310089E0,2.3141904E0,2.0334148E0,3.4342346E0,8.257904E-1,1.7605286E0,3.7057114E-1,0E0,0E0,0E0,0E0,0E0,0E0,0E0,0E0,0E0,0E0,0E0,0E0,0E0,0E0,0E0,0E0,0E0,0E0,0E0,0E0,0E0,0E0,0E0,0E0,0E0,0E0,0E0,0E0,0E0,0E0,0E0,0E0,0E0,0E0,0E0,0E0,0E0,0E0,0E0,0E0,0E0,0E0,0E0,0E0,0E0,0E0,0E0,0E0,0E0,0E0,0E0,0E0,0E0,0E0,0E0,0E0,0E0,0E0,0E0,0E0,0E0,0E0,0E0,0E0],"parents":[2147483647,0,0,1,1,2,2,3,3,4,4,5,5,6,6,7,7,8,8,9,9,10,10,11,11,12,12,13,13,14,14,15,15,16,16,17,17,18,18,19,19,20,20,21,21,22,22,23,23,24,24,25,25,26,26,27,27,28,28,29,29,30,30,31,31,32,32,33,33,34,34,35,35,36,36,37,37,38,38,39,39,40,40,41,41,42,42,43,43,44,44,45,45,46,46,47,47,48,48,49,49,50,50,51,51,52,52,53,53,54,54,55,55,56,56,57,57,58,58,59,59,60,60,61,61,62,62],"right_children":[2,4,6,8,10,12,14,16,18,20,22,24,26,28,30,32,34,36,38,40,42,44,46,48,50,52,54,56,58,60,62,64,66,68,70,72,74,76,78,80,82,84,86,88,90,92,94,96,98,100,102,104,106,108,110,112,114,116,118,120,122,124,126,-1,-1,-1,-1,-1,-1,-1,-1,-1,-1,-1,-1,-1,-1,-1,-1,-1,-1,-1,-1,-1,-1,-1,-1,-1,-1,-1,-1,-1,-1,-1,-1,-1,-1,-1,-1,-1,-1,-1,-1,-1,-1,-1,-1,-1,-1,-1,-1,-1,-1,-1,-1,-1,-1,-1,-1,-1,-1,-1,-1,-1,-1,-1,-1],"split_conditions":[1.1426249E-1,8.7878096E-1,8.7878096E-1,1E0,1E0,1E0,1E0,1E0,1E0,1E0,1E0,2.022279E0,1E0,1E0,1E0,-9.492877E-1,-6.558946E-1,-8.0259115E-1,-8.759394E-1,-9.26183E-1,-5.8254623E-1,-9.4892097E-1,-8.0259115E-1,5.649877E-1,1.0677903E0,2.022279E0,2.022279E0,2.022279E0,1.0677903E0,2.022279E0,2.022279E0,-1.279355E0,-2.1580482E-1,-1.279355E0,-2.1580482E-1,-1.2060068E0,-6.910823E-2,-1.5727482E0,-4.358497E-1,-1.4260516E0,-4.358497E-1,-1.2060068E0,2.022279E0,1E0,-6.558946E-1,-1.3160292E0,4.0914204E-2,1E0,1E0,3.948197E-1,1E0,7.010488E-1,9.94442E-1,8.8441956E-1,1.1411386E0,6.6437465E-1,1.251161E0,2.022279E0,2.022279E0,1.0311161E0,5.228125E-1,7.010488E-1,5.649877E-1,-6.424486E-3,-5.457075E-3,-4.386434E-3,-3.0229455E-3,-8.703055E-3,-7.6720975E-3,-6.672665E-3,-5.855306E-3,-1.179771E-3,5.8070593E-5,1.3404288E-3,3.0058608E-3,-3.9035876E-3,-2.7793187E-3,-1.9118142E-3,-8.532665E-4,-1.5057196E-3,-4.710284E-4,6.567761E-4,2.0144614E-3,-3.5354607E-3,-2.4449688E-3,-1.0723777E-3,-7.1983263E-3,4.9511497E-3,2.6637756E-3,6.8443986E-3,7.918137E-3,8.327895E-4,2.4495989E-3,3.8797122E-3,6.221885E-3,-2.1291021E-3,-4.943421E-3,-2.7692996E-4,-2.1350493E-3,5.220037E-4,1.8808295E-3,3.8732234E-3,1.656596E-3,3.546824E-3,5.168529E-3,6.697821E-3,8.932617E-3,1.0649682E-3,2.873481E-3,3.9547896E-3,6.3540176E-3,3.3636147E-3,5.30138E-3,6.7251995E-3,9.122557E-3,1.1165462E-3,3.894516E-3,3.183933E-3,5.8584805E-3,9.157424E-3,1.1384057E-2,1.1243459E-2,1.3462071E-2,6.161342E-3,7.8708455E-3,8.7645715E-3,1.10442685E-2],"split_indices":[0,3,3,9,9,9,9,10,10,10,10,2,10,10,10,0,0,0,0,0,0,0,0,0,0,2,2,2,0,2,2,0,0,0,0,0,0,0,0,0,0,0,2,17,0,0,0,10,10,0,10,0,0,0,0,0,0,2,2,0,0,0,0,0,0,0,0,0,0,0,0,0,0,0,0,0,0,0,0,0,0,0,0,0,0,0,0,0,0,0,0,0,0,0,0,0,0,0,0,0,0,0,0,0,0,0,0,0,0,0,0,0,0,0,0,0,0,0,0,0,0,0,0,0,0,0,0],"split_type":[0,0,0,0,0,0,0,0,0,0,0,0,0,0,0,0,0,0,0,0,0,0,0,0,0,0,0,0,0,0,0,0,0,0,0,0,0,0,0,0,0,0,0,0,0,0,0,0,0,0,0,0,0,0,0,0,0,0,0,0,0,0,0,0,0,0,0,0,0,0,0,0,0,0,0,0,0,0,0,0,0,0,0,0,0,0,0,0,0,0,0,0,0,0,0,0,0,0,0,0,0,0,0,0,0,0,0,0,0,0,0,0,0,0,0,0,0,0,0,0,0,0,0,0,0,0,0],"sum_hessian":[2.89409E5,1.45908E5,1.43501E5,9.5318E4,5.059E4,8.8651E4,5.485E4,6.2263E4,3.3055E4,4.2381E4,8.209E3,6.0698E4,2.7953E4,3.7113E4,1.7737E4,4.2687E4,1.9576E4,2.1892E4,1.1163E4,2.7641E4,1.474E4,3.136E3,5.073E3,5.4263E4,6.435E3,1.6954E4,1.0999E4,2.2287E4,1.4826E4,1.0484E4,7.253E3,1.6805E4,2.5882E4,1.1013E4,8.563E3,1.2361E4,9.531E3,5.378E3,5.785E3,1.2756E4,1.4885E4,9.273E3,5.467E3,1.239E3,1.897E3,2.91E3,2.163E3,1.7793E4,3.647E4,3.162E3,3.273E3,1.3958E4,2.996E3,9.406E3,1.593E3,1.8538E4,3.749E3,8.968E3,5.858E3,8.113E3,2.371E3,6.209E3,1.044E3,9.868E3,6.937E3,1.8281E4,7.601E3,4.899E3,6.114E3,5.033E3,3.53E3,7.412E3,4.949E3,8.166E3,1.365E3,1.156E3,4.222E3,2.973E3,2.812E3,5.593E3,7.163E3,6.331E3,8.554E3,4.384E3,4.889E3,5.437E3,3E1,7.88E2,4.51E2,1.59E2,1.738E3,1.323E3,1.587E3,2.026E3,1.37E2,1.2607E4,5.186E3,2.5617E4,1.0853E4,1.044E3,2.118E3,2.728E3,5.45E2,6.638E3,7.32E3,1.563E3,1.433E3,5.262E3,4.144E3,8.84E2,7.09E2,7.254E3,1.1284E4,2.577E3,1.172E3,8.143E3,8.25E2,5.029E3,8.29E2,5.557E3,2.556E3,6.09E2,1.762E3,2.678E3,3.531E3,2.67E2,7.77E2],"tree_param":{"num_deleted":"0","num_feature":"20","num_nodes":"127","size_leaf_vector":"1"}},{"base_weights":[9.489766E-5,-4.609083E-2,4.7062382E-2,-7.266435E-2,3.742023E-3,9.115221E-3,1.0832769E-1,-1.06242836E-1,-9.99236E-3,-1.086136E-2,7.842834E-2,-2.0802237E-2,7.47779E-2,7.478988E-2,1.7770928E-1,-9.112945E-2,-1.395796E-1,6.093135E-3,-4.1243743E-2,6.4900666E-3,-4.334558E-2,1.2170091E-1,5.1788356E-2,-2.8686753E-2,4.626367E-2,9.522953E-2,4.320452E-2,9.620195E-2,4.271729E-2,2.0101447E-1,1.4419934E-1,-1.0638762E-1,-6.667025E-2,-1.599762E-1,-1.2592524E-1,-1.8988077E-2,2.3969214E-2,-5.927641E-2,-2.8323334E-2,-1.9015415E-2,2.7151383E-2,-6.2357277E-2,-2.7944876E-2,7.8944504E-2,1.4883861E-1,2.4622789E-2,6.829739E-2,-4.5280825E-2,-6.1403695E-3,2.5463829E-2,6.46471E-2,8.400151E-2,1.4811626E-1,3.449975E-2,9.5696956E-2,8.704087E-2,1.410093E-1,1.1318986E-2,5.5968713E-2,1.8809259E-1,2.4477278E-1,1.3476013E-1,1.99018E-1,-5.9943716E-3,-4.723526E-3,-3.673856E-3,-2.7105985E-3,-8.656285E-3,-7.792058E-3,-6.74051E-3,-5.7405285E-3,-9.02698E-4,-6.8966136E-3,6.3778966E-4,1.914611E-3,-4.4293357E-3,-2.8283622E-3,-1.939807E-3,-8.4797153E-4,-9.137611E-4,-7.362465E-3,6.1490625E-4,1.9322739E-3,-3.6329802E-3,-2.779981E-3,-1.97619E-3,-9.138475E-4,2.6777224E-3,4.856605E-3,5.8099027E-3,7.487478E-3,1.287147E-4,1.7236514E-3,2.8729972E-3,4.1012275E-3,-1.5433477E-3,-4.2110234E-3,2.5443124E-4,-1.4341878E-3,5.637185E-4,1.9397602E-3,3.5658844E-3,1.6201887E-3,3.1945778E-3,4.7855843E-3,6.4923614E-3,8.625121E-3,4.7547524E-4,2.3084625E-3,3.7405775E-3,6.2167905E-3,3.0729775E-3,4.977743E-3,6.476154E-3,8.84446E-3,3.3583492E-4,2.9866928E-3,2.4668348E-3,5.2375915E-3,8.756813E-3,1.08376695E-2,1.0791402E-2,1.283437E-2,6.226045E-3,7.986358E-3,9.2474E-3,1.1059561E-2],"categories":[],"categories_nodes":[],"categories_segments":[],"categories_sizes":[],"default_left":[0,0,0,0,0,0,0,0,0,0,0,0,0,0,0,0,0,0,0,0,0,0,0,0,0,0,0,0,0,0,0,0,0,0,0,0,0,0,0,0,0,0,0,0,0,0,0,0,0,0,0,0,0,0,0,0,0,0,0,0,0,0,0,0,0,0,0,0,0,0,0,0,0,0,0,0,0,0,0,0,0,0,0,0,0,0,0,0,0,0,0,0,0,0,0,0,0,0,0,0,0,0,0,0,0,0,0,0,0,0,0,0,0,0,0,0,0,0,0,0,0,0,0,0,0,0,0],"id":12,"left_children":[1,3,5,7,9,11,13,15,17,19,21,23,25,27,29,31,33,35,37,39,41,43,45,47,49,51,53,55,57,59,61,63,65,67,69,71,73,75,77,79,81,83,85,87,89,91,93,95,97,99,101,103,105,107,109,111,113,115,117,119,121,123,125,-1,-1,-1,-1,-1,-1,-1,-1,-1,-1,-1,-1,-1,-1,-1,-1,-1,-1,-1,-1,-1,-1,-1,-1,-1,-1,-1,-1,-1,-1,-1,-1,-1,-1,-1,-1,-1,-1,-1,-1,-1,-1,-1,-1,-1,-1,-1,-1,-1,-1,-1,-1,-1,-1,-1,-1,-1,-1,-1,-1,-1,-1,-1,-1],"loss_changes":[6.2837103E2,1.9340866E2,3.3389783E2,2.0046063E2,5.5403763E1,1.7422954E2,1.2781067E2,3.1237427E1,1.670628E1,2.3949667E1,9.571003E0,3.2220024E1,1.792192E1,2.542862E1,1.3950134E1,1.5921204E1,5.3677673E0,9.837784E0,2.6294708E0,1.4596193E1,4.3298454E0,3.660633E0,2.3052864E0,2.0398006E1,2.4493618E0,9.991531E0,4.9841404E0,9.103348E0,6.1688843E0,5.9221497E0,3.7743225E0,4.2168884E0,1.3866882E0,3.946228E-1,1.129364E0,1.0120342E0,2.057085E0,3.6923027E-1,7.825594E-1,1.1739106E0,2.6119547E0,4.5684433E-1,9.144211E-1,5.632534E-1,4.013443E-2,4.2254913E-1,4.7119236E-1,1.7624672E1,5.85172E0,5.687599E-1,7.293978E-1,3.2669754E0,1.29142E0,2.7303247E0,9.190016E-1,5.8969727E0,1.5299683E0,9.804488E-1,3.3682823E0,2.9895935E0,7.733154E-1,1.5829926E0,2.9509354E-1,0E0,0E0,0E0,0E0,0E0,0E0,0E0,0E0,0E0,0E0,0E0,0E0,0E0,0E0,0E0,0E0,0E0,0E0,0E0,0E0,0E0,0E0,0E0,0E0,0E0,0E0,0E0,0E0,0E0,0E0,0E0,0E0,0E0,0E0,0E0,0E0,0E0,0E0,0E0,0E0,0E0,0E0,0E0,0E0,0E0,0E0,0E0,0E0,0E0,0E0,0E0,0E0,0E0,0E0,0E0,0E0,0E0,0E0,0E0,0E0,0E0,0E0,0E0,0E0],"parents":[2147483647,0,0,1,1,2,2,3,3,4,4,5,5,6,6,7,7,8,8,9,9,10,10,11,11,12,12,13,13,14,14,15,15,16,16,17,17,18,18,19,19,20,20,21,21,22,22,23,23,24,24,25,25,26,26,27,27,28,28,29,29,30,30,31,31,32,32,33,33,34,34,35,35,36,36,37,37,38,38,39,39,40,40,41,41,42,42,43,43,44,44,45,45,46,46,47,47,48,48,49,49,50,50,51,51,52,52,53,53,54,54,55,55,56,56,57,57,58,58,59,59,60,60,61,61,62,62],"right_children":[2,4,6,8,10,12,14,16,18,20,22,24,26,28,30,32,34,36,38,40,42,44,46,48,50,52,54,56,58,60,62,64,66,68,70,72,74,76,78,80,82,84,86,88,90,92,94,96,98,100,102,104,106,108,110,112,114,116,118,120,122,124,126,-1,-1,-1,-1,-1,-1,-1,-1,-1,-1,-1,-1,-1,-1,-1,-1,-1,-1,-1,-1,-1,-1,-1,-1,-1,-1,-1,-1,-1,-1,-1,-1,-1,-1,-1,-1,-1,-1,-1,-1,-1,-1,-1,-1,-1,-1,-1,-1,-1,-1,-1,-1,-1,-1,-1,-1,-1,-1,-1,-1,-1,-1,-1,-1],"split_conditions":[1.1426249E-1,8.7878096E-1,8.7878096E-1,1E0,1E0,1E0,1E0,1E0,1E0,1E0,1E0,2.022279E0,1E0,1E0,1E0,-5.8254623E-1,-9.8596185E-1,-1.0956175E0,-9.8596185E-1,-9.492877E-1,-9.492877E-1,-9.4892097E-1,-1.1693326E0,9.5776784E-1,1.0311161E0,2.022279E0,2.022279E0,2.022279E0,5.649877E-1,2.022279E0,2.022279E0,-1.1693326E0,-1.4245652E-1,-1.5727482E0,-3.988088E-1,2.022279E0,-4.358497E-1,-1.6827706E0,-4.7252384E-1,2.022279E0,-4.358497E-1,-1.4260516E0,-4.7252384E-1,-1.3893775E0,-8.392653E-1,-1.5727482E0,-4.7252384E-1,1E0,1E0,5.8662546E-1,1E0,5.228125E-1,1.0677903E0,5.649877E-1,1.2144868E0,5.228125E-1,1.3978575E0,2.022279E0,2.022279E0,1.0311161E0,6.277005E-1,1.0677903E0,1.1411386E0,-5.9943716E-3,-4.723526E-3,-3.673856E-3,-2.7105985E-3,-8.656285E-3,-7.792058E-3,-6.74051E-3,-5.7405285E-3,-9.02698E-4,-6.8966136E-3,6.3778966E-4,1.914611E-3,-4.4293357E-3,-2.8283622E-3,-1.939807E-3,-8.4797153E-4,-9.137611E-4,-7.362465E-3,6.1490625E-4,1.9322739E-3,-3.6329802E-3,-2.779981E-3,-1.97619E-3,-9.138475E-4,2.6777224E-3,4.856605E-3,5.8099027E-3,7.487478E-3,1.287147E-4,1.7236514E-3,2.8729972E-3,4.1012275E-3,-1.5433477E-3,-4.2110234E-3,2.5443124E-4,-1.4341878E-3,5.637185E-4,1.9397602E-3,3.5658844E-3,1.6201887E-3,3.1945778E-3,4.7855843E-3,6.4923614E-3,8.625121E-3,4.7547524E-4,2.3084625E-3,3.7405775E-3,6.2167905E-3,3.0729775E-3,4.977743E-3,6.476154E-3,8.84446E-3,3.3583492E-4,2.9866928E-3,2.4668348E-3,5.2375915E-3,8.756813E-3,1.08376695E-2,1.0791402E-2,1.283437E-2,6.226045E-3,7.986358E-3,9.2474E-3,1.1059561E-2],"split_indices":[0,3,3,9,9,9,9,10,10,10,10,2,10,10,10,0,0,0,0,0,0,0,0,0,0,2,2,2,0,2,2,0,0,0,0,2,0,0,0,2,0,0,0,0,0,0,0,10,10,0,10,0,0,0,0,0,0,2,2,0,0,0,0,0,0,0,0,0,0,0,0,0,0,0,0,0,0,0,0,0,0,0,0,0,0,0,0,0,0,0,0,0,0,0,0,0,0,0,0,0,0,0,0,0,0,0,0,0,0,0,0,0,0,0,0,0,0,0,0,0,0,0,0,0,0,0,0],"split_type":[0,0,0,0,0,0,0,0,0,0,0,0,0,0,0,0,0,0,0,0,0,0,0,0,0,0,0,0,0,0,0,0,0,0,0,0,0,0,0,0,0,0,0,0,0,0,0,0,0,0,0,0,0,0,0,0,0,0,0,0,0,0,0,0,0,0,0,0,0,0,0,0,0,0,0,0,0,0,0,0,0,0,0,0,0,0,0,0,0,0,0,0,0,0,0,0,0,0,0,0,0,0,0,0,0,0,0,0,0,0,0,0,0,0,0,0,0,0,0,0,0,0,0,0,0,0,0],"sum_hessian":[2.89673E5,1.46052E5,1.43621E5,9.5256E4,5.0796E4,8.8689E4,5.4932E4,6.2024E4,3.3232E4,4.2489E4,8.307E3,6.0929E4,2.776E4,3.7033E4,1.7899E4,4.2679E4,1.9345E4,2.194E4,1.1292E4,2.7696E4,1.4793E4,3.164E3,5.143E3,5.452E4,6.409E3,1.6846E4,1.0914E4,2.2206E4,1.4827E4,1.0554E4,7.345E3,2.6281E4,1.6398E4,7.753E3,1.1592E4,9.13E3,1.281E4,4.712E3,6.58E3,1.2395E4,1.5301E4,6.619E3,8.174E3,1.23E3,1.934E3,1.945E3,3.198E3,3.1405E4,2.3115E4,3.008E3,3.401E3,1.3898E4,2.948E3,9.363E3,1.551E3,1.8439E4,3.767E3,4.401E3,1.0426E4,8.152E3,2.402E3,6.269E3,1.076E3,1.2318E4,1.3963E4,1.0601E4,5.797E3,1.845E3,5.908E3,6.436E3,5.156E3,9.06E3,7E1,7.186E3,5.624E3,3.96E2,4.316E3,3.423E3,3.157E3,1.2325E4,7E1,6.676E3,8.625E3,2.618E3,4.001E3,3.718E3,4.456E3,5.15E2,7.15E2,5.6E1,1.878E3,6.01E2,1.344E3,1.79E3,1.408E3,2.2922E4,8.483E3,1.543E4,7.685E3,1.458E3,1.55E3,2.817E3,5.84E2,5.117E3,8.781E3,1.689E3,1.259E3,2.981E3,6.382E3,8.99E2,6.52E2,6.059E3,1.238E4,2.857E3,9.1E2,4.02E3,3.81E2,9.18E3,1.246E3,5.619E3,2.533E3,7.06E2,1.696E3,4.45E3,1.819E3,6.64E2,4.12E2],"tree_param":{"num_deleted":"0","num_feature":"20","num_nodes":"127","size_leaf_vector":"1"}},{"base_weights":[6.988207E-5,-4.4044975E-2,4.4862546E-2,-6.932221E-2,3.2069322E-3,8.789409E-3,1.0284351E-1,-1.01124E-1,-9.806406E-3,-1.0500377E-2,7.316211E-2,-1.974081E-2,7.1249366E-2,7.111274E-2,1.6825579E-1,-8.6795904E-2,-1.3271795E-1,5.465907E-3,-3.9218433E-2,6.180809E-3,-4.186206E-2,1.148886E-1,4.758459E-2,-2.7327258E-2,4.428759E-2,9.05937E-2,4.169921E-2,9.125201E-2,4.0818706E-2,